{"learner":{"attributes":{"best_iteration":"499","best_score":"0.03406"},"feature_names":[],"feature_types":[],"gradient_booster":{"model":{"gbtree_model_param":{"num_parallel_tree":"1","num_trees":"500"},"iteration_indptr":[0,1,2,3,4,5,6,7,8,9,10,11,12,13,14,15,16,17,18,19,20,21,22,23,24,25,26,27,28,29,30,31,32,33,34,35,36,37,38,39,40,41,42,43,44,45,46,47,48,49,50,51,52,53,54,55,56,57,58,59,60,61,62,63,64,65,66,67,68,69,70,71,72,73,74,75,76,77,78,79,80,81,82,83,84,85,86,87,88,89,90,91,92,93,94,95,96,97,98,99,100,101,102,103,104,105,106,107,108,109,110,111,112,113,114,115,116,117,118,119,120,121,122,123,124,125,126,127,128,129,130,131,132,133,134,135,136,137,138,139,140,141,142,143,144,145,146,147,148,149,150,151,152,153,154,155,156,157,158,159,160,161,162,163,164,165,166,167,168,169,170,171,172,173,174,175,176,177,178,179,180,181,182,183,184,185,186,187,188,189,190,191,192,193,194,195,196,197,198,199,200,201,202,203,204,205,206,207,208,209,210,211,212,213,214,215,216,217,218,219,220,221,222,223,224,225,226,227,228,229,230,231,232,233,234,235,236,237,238,239,240,241,242,243,244,245,246,247,248,249,250,251,252,253,254,255,256,257,258,259,260,261,262,263,264,265,266,267,268,269,270,271,272,273,274,275,276,277,278,279,280,281,282,283,284,285,286,287,288,289,290,291,292,293,294,295,296,297,298,299,300,301,302,303,304,305,306,307,308,309,310,311,312,313,314,315,316,317,318,319,320,321,322,323,324,325,326,327,328,329,330,331,332,333,334,335,336,337,338,339,340,341,342,343,344,345,346,347,348,349,350,351,352,353,354,355,356,357,358,359,360,361,362,363,364,365,366,367,368,369,370,371,372,373,374,375,376,377,378,379,380,381,382,383,384,385,386,387,388,389,390,391,392,393,394,395,396,397,398,399,400,401,402,403,404,405,406,407,408,409,410,411,412,413,414,415,416,417,418,419,420,421,422,423,424,425,426,427,428,429,430,431,432,433,434,435,436,437,438,439,440,441,442,443,444,445,446,447,448,449,450,451,452,453,454,455,456,457,458,459,460,461,462,463,464,465,466,467,468,469,470,471,472,473,474,475,476,477,478,479,480,481,482,483,484,485,486,487,488,489,490,491,492,493,494,495,496,497,498,499,500],"tree_info":[0,0,0,0,0,0,0,0,0,0,0,0,0,0,0,0,0,0,0,0,0,0,0,0,0,0,0,0,0,0,0,0,0,0,0,0,0,0,0,0,0,0,0,0,0,0,0,0,0,0,0,0,0,0,0,0,0,0,0,0,0,0,0,0,0,0,0,0,0,0,0,0,0,0,0,0,0,0,0,0,0,0,0,0,0,0,0,0,0,0,0,0,0,0,0,0,0,0,0,0,0,0,0,0,0,0,0,0,0,0,0,0,0,0,0,0,0,0,0,0,0,0,0,0,0,0,0,0,0,0,0,0,0,0,0,0,0,0,0,0,0,0,0,0,0,0,0,0,0,0,0,0,0,0,0,0,0,0,0,0,0,0,0,0,0,0,0,0,0,0,0,0,0,0,0,0,0,0,0,0,0,0,0,0,0,0,0,0,0,0,0,0,0,0,0,0,0,0,0,0,0,0,0,0,0,0,0,0,0,0,0,0,0,0,0,0,0,0,0,0,0,0,0,0,0,0,0,0,0,0,0,0,0,0,0,0,0,0,0,0,0,0,0,0,0,0,0,0,0,0,0,0,0,0,0,0,0,0,0,0,0,0,0,0,0,0,0,0,0,0,0,0,0,0,0,0,0,0,0,0,0,0,0,0,0,0,0,0,0,0,0,0,0,0,0,0,0,0,0,0,0,0,0,0,0,0,0,0,0,0,0,0,0,0,0,0,0,0,0,0,0,0,0,0,0,0,0,0,0,0,0,0,0,0,0,0,0,0,0,0,0,0,0,0,0,0,0,0,0,0,0,0,0,0,0,0,0,0,0,0,0,0,0,0,0,0,0,0,0,0,0,0,0,0,0,0,0,0,0,0,0,0,0,0,0,0,0,0,0,0,0,0,0,0,0,0,0,0,0,0,0,0,0,0,0,0,0,0,0,0,0,0,0,0,0,0,0,0,0,0,0,0,0,0,0,0,0,0,0,0,0,0,0,0,0,0,0,0,0,0,0,0,0,0,0,0,0,0,0,0,0,0,0,0,0,0,0,0,0,0,0,0,0,0,0,0,0,0,0,0,0,0,0,0,0,0,0,0,0,0,0,0,0,0,0,0,0,0,0,0,0,0,0,0,0,0,0,0,0,0],"trees":[{"base_weights":[1.6308132E-3,-1.8909427E0,7.0269525E-1,-1.93369E0,1.0029163E0,-9.120791E-1,1.4412415E0,-1.9762825E0,7.288864E-1,-8.596994E-2,1.4585389E0,1.8143584E0,-1.4012141E0,1.5569314E0,-9.8459643E-1,-9.922837E-2,-9.837389E-3,-9.1737874E-2,7.471319E-2,8.46556E-2,-3.4653295E-2,-9.398311E-2,9.834616E-2,-8.6767666E-2,6.70584E-2,8.043253E-2,-7.235407E-2,-8.899715E-2,8.658185E-3],"categories":[],"categories_nodes":[],"categories_segments":[],"categories_sizes":[],"default_left":[0,0,0,0,0,0,0,0,0,0,0,0,0,0,0,0,0,0,0,0,0,0,0,0,0,0,0,0,0],"id":0,"left_children":[1,3,5,7,9,11,13,15,17,-1,19,21,23,25,27,-1,-1,-1,-1,-1,-1,-1,-1,-1,-1,-1,-1,-1,-1],"loss_changes":[1.9882792E5,5.034703E3,1.3042861E5,4.5478438E3,7.611591E2,4.5795594E4,2.1077938E4,5.645625E2,1.2697173E3,0E0,2.772898E2,2.9813887E3,2.6698625E4,1.1152984E4,3.1603147E3,0E0,0E0,0E0,0E0,0E0,0E0,0E0,0E0,0E0,0E0,0E0,0E0,0E0,0E0],"parents":[2147483647,0,0,1,1,2,2,3,3,4,4,5,5,6,6,7,7,8,8,10,10,11,11,12,12,13,13,14,14],"right_children":[2,4,6,8,10,12,14,16,18,-1,20,22,24,26,28,-1,-1,-1,-1,-1,-1,-1,-1,-1,-1,-1,-1,-1,-1],"split_conditions":[1.0518428E-1,7.670963E-2,2.3216307E-1,1.2458619E0,-4.567088E-2,1.05302E-1,4.4154987E-2,7.476836E-2,8.147753E-3,-8.596994E-2,-7.6094866E-2,1.2563629E-2,1.0240505E0,-3.6244307E-2,-7.2609438E-3,-9.922837E-2,-9.837389E-3,-9.1737874E-2,7.471319E-2,8.46556E-2,-3.4653295E-2,-9.398311E-2,9.834616E-2,-8.6767666E-2,6.70584E-2,8.043253E-2,-7.235407E-2,-8.899715E-2,8.658185E-3],"split_indices":[2093,2299,174,2499,2048,2093,2232,3651,2049,0,81,2049,858,2120,29,0,0,0,0,0,0,0,0,0,0,0,0,0,0],"split_type":[0,0,0,0,0,0,0,0,0,0,0,0,0,0,0,0,0,0,0,0,0,0,0,0,0,0,0,0,0],"sum_hessian":[1.498379E5,4.049491E4,1.09343E5,3.991041E4,5.8449866E2,3.431242E4,7.503058E4,3.928641E4,6.239986E2,7.8249825E1,5.0624884E2,5.2137383E3,2.9098684E4,7.1620586E4,3.4099922E3,3.910041E4,1.8599957E2,1.3874968E2,4.852489E2,4.6049896E2,4.5749897E1,2.0099954E2,5.012739E3,2.5943191E4,3.155493E3,7.041459E4,1.2059973E3,2.0207455E3,1.3892468E3],"tree_param":{"num_deleted":"0","num_feature":"4096","num_nodes":"29","size_leaf_vector":"1"}},{"base_weights":[-1.9890726E-4,-1.800095E0,6.6691047E-1,-1.8390943E0,6.7943925E-1,-9.0562516E-1,1.3642421E0,-1.8803897E0,2.4582323E-1,-8.742652E-2,1.3837398E0,-1.4160147E0,1.6778824E0,1.4753131E0,-9.401485E-1,-9.4435744E-2,-5.7680714E-3,-9.1122985E-2,6.943062E-2,7.476952E-2,-1.4408248E-2,-8.318045E-2,7.4901424E-2,-8.386515E-2,9.2264295E-2,-6.1994113E-2,7.5927734E-2,-8.49802E-2,5.399244E-3],"categories":[],"categories_nodes":[],"categories_segments":[],"categories_sizes":[],"default_left":[0,0,0,0,0,0,0,0,0,0,0,0,0,0,0,0,0,0,0,0,0,0,0,0,0,0,0,0,0],"id":1,"left_children":[1,3,5,7,9,11,13,15,17,-1,19,21,23,25,27,-1,-1,-1,-1,-1,-1,-1,-1,-1,-1,-1,-1,-1,-1],"loss_changes":[1.7977084E5,3.9333594E3,1.1979075E5,3.4449844E3,1.1035276E3,4.4274156E4,1.9386234E4,5.6225E2,1.8684921E3,0E0,1.0316907E2,2.0249793E4,3.1429883E3,8.497578E3,2.7830408E3,0E0,0E0,0E0,0E0,0E0,0E0,0E0,0E0,0E0,0E0,0E0,0E0,0E0,0E0],"parents":[2147483647,0,0,1,1,2,2,3,3,4,4,5,5,6,6,7,7,8,8,10,10,11,11,12,12,13,13,14,14],"right_children":[2,4,6,8,10,12,14,16,18,-1,20,22,24,26,28,-1,-1,-1,-1,-1,-1,-1,-1,-1,-1,-1,-1,-1,-1],"split_conditions":[1.0518428E-1,1.2458619E0,1.2632999E-1,1.396931E-1,8.147753E-3,1.0619472E0,4.4154987E-2,7.476836E-2,2.3855353E-2,-8.742652E-2,-1.4308814E-2,1.1106066E0,1.2141656E-2,3.929665E-2,-7.2609438E-3,-9.4435744E-2,-5.7680714E-3,-9.1122985E-2,6.943062E-2,7.476952E-2,-1.4408248E-2,-8.318045E-2,7.4901424E-2,-8.386515E-2,9.2264295E-2,-6.1994113E-2,7.5927734E-2,-8.49802E-2,5.399244E-3],"split_indices":[2093,2499,45,2357,2049,2906,2232,3651,2051,0,164,858,2049,2157,29,0,0,0,0,0,0,0,0,0,0,0,0,0,0],"split_type":[0,0,0,0,0,0,0,0,0,0,0,0,0,0,0,0,0,0,0,0,0,0,0,0,0,0,0,0,0],"sum_hessian":[1.4969355E5,4.0476457E4,1.09217086E5,3.9854207E4,6.2224774E2,3.3549734E4,7.566735E4,3.9083473E4,7.7073517E2,1.3498424E2,4.872635E2,2.8020541E4,5.5291943E3,7.2193414E4,3.473933E3,3.8896477E4,1.8699782E2,2.7062335E2,5.0011182E2,4.6055386E2,2.6709627E1,2.5831732E4,2.188809E3,2.5705728E2,5.2721367E3,1.1255626E3,7.106785E4,2.0135278E3,1.4604052E3],"tree_param":{"num_deleted":"0","num_feature":"4096","num_nodes":"29","size_leaf_vector":"1"}},{"base_weights":[3.593025E-4,6.771674E-1,-1.69469E0,1.1897814E0,-1.2365845E0,-1.7306489E0,6.583821E-1,-1.666477E0,1.2661244E0,-1.7073083E0,1.6967112E0,-1.7666076E0,5.0855838E-2,-8.452629E-2,1.3312213E0,3.4069728E-2,-8.948765E-2,-4.877981E-2,6.703649E-2,-8.886205E-2,-2.5314687E-2,-7.7780895E-2,8.893506E-2,9.344047E-3,-8.9051545E-2,-8.842488E-2,6.672633E-2,-6.721726E-3,7.28206E-2],"categories":[],"categories_nodes":[],"categories_segments":[],"categories_sizes":[],"default_left":[0,0,0,0,0,0,0,0,0,0,0,0,0,0,0,0,0,0,0,0,0,0,0,0,0,0,0,0,0],"id":2,"left_children":[1,3,5,7,9,11,13,15,17,19,21,23,25,-1,27,-1,-1,-1,-1,-1,-1,-1,-1,-1,-1,-1,-1,-1,-1],"loss_changes":[1.7111333E5,1.0458934E5,3.6179375E3,1.8354219E4,3.1129148E4,2.6951953E3,1.0412811E3,6.520513E2,1.371275E4,1.6102891E3,8.6028906E2,1.1692656E3,1.9749233E3,0E0,1.0200189E2,0E0,0E0,0E0,0E0,0E0,0E0,0E0,0E0,0E0,0E0,0E0,0E0,0E0,0E0],"parents":[2147483647,0,0,1,1,2,2,3,3,4,4,5,5,6,6,7,7,8,8,9,9,10,10,11,11,12,12,14,14],"right_children":[2,4,6,8,10,12,14,16,18,20,22,24,26,-1,28,-1,-1,-1,-1,-1,-1,-1,-1,-1,-1,-1,-1,-1,-1],"split_conditions":[-1.6098773E-1,-1.6100694E-1,1.2458619E0,1.4165376E-1,-1.6107027E-1,1.396931E-1,1.3269815E-1,3.001259E-2,2.8447093E-2,8.311734E-1,1.1065387E-2,-8.207368E-1,1.4073327E-1,-8.452629E-2,-9.610311E-2,3.4069728E-2,-8.948765E-2,-4.877981E-2,6.703649E-2,-8.886205E-2,-2.5314687E-2,-7.7780895E-2,8.893506E-2,9.344047E-3,-8.9051545E-2,-8.842488E-2,6.672633E-2,-6.721726E-3,7.28206E-2],"split_indices":[2160,112,2499,2050,2160,2357,2050,2078,2185,707,2049,2511,2050,0,159,0,0,0,0,0,0,0,0,0,0,0,0,0,0],"split_type":[0,0,0,0,0,0,0,0,0,0,0,0,0,0,0,0,0,0,0,0,0,0,0,0,0,0,0,0,0],"sum_hessian":[1.4913878E5,1.0658852E5,4.2550266E4,8.40748E4,2.2513723E4,4.191451E4,6.357536E2,2.18155E3,8.189325E4,1.940549E4,3.1082324E3,4.108806E4,8.264519E2,1.3653793E2,4.992157E2,1.0454722E2,2.0770027E3,2.6316074E3,7.926164E4,1.8329256E4,1.0762338E3,7.0511475E1,3.037721E3,2.9772455E2,4.0790336E4,3.3871597E2,4.877359E2,3.6084343E1,4.6313135E2],"tree_param":{"num_deleted":"0","num_feature":"4096","num_nodes":"29","size_leaf_vector":"1"}},{"base_weights":[-2.1520278E-3,-1.6296614E0,6.2576985E-1,-1.6941049E0,-8.069238E-1,-8.0166817E-1,1.2714859E0,-1.7321533E0,-1.24359E-1,-8.781504E-2,-9.110109E-2,-1.2519615E0,1.5728159E0,1.3711119E0,-9.256093E-1,-8.702084E-2,2.7566984E-2,6.203596E-2,-8.6513095E-2,-8.620041E-2,3.2604814E-2,-7.669925E-2,5.706243E-2,-7.714546E-2,8.495213E-2,-8.8108666E-2,7.036844E-2,-7.260967E-2,4.2983133E-2],"categories":[],"categories_nodes":[],"categories_segments":[],"categories_sizes":[],"default_left":[0,0,0,0,0,0,0,0,0,0,0,0,0,0,0,0,0,0,0,0,0,0,0,0,0,0,0,0,0],"id":3,"left_children":[1,3,5,7,9,11,13,15,17,-1,19,21,23,25,27,-1,-1,-1,-1,-1,-1,-1,-1,-1,-1,-1,-1,-1,-1],"loss_changes":[1.5115444E5,2.1571406E3,9.838221E4,2.2685234E3,2.0387369E3,3.5563668E4,1.6100844E4,7.1872656E2,2.0346991E3,0E0,2.1197327E3,1.8885742E4,2.1122559E3,8.0102188E3,3.0158386E3,0E0,0E0,0E0,0E0,0E0,0E0,0E0,0E0,0E0,0E0,0E0,0E0,0E0,0E0],"parents":[2147483647,0,0,1,1,2,2,3,3,4,4,5,5,6,6,7,7,8,8,10,10,11,11,12,12,13,13,14,14],"right_children":[2,4,6,8,10,12,14,16,18,-1,20,22,24,26,28,-1,-1,-1,-1,-1,-1,-1,-1,-1,-1,-1,-1,-1,-1],"split_conditions":[1.4419354E-1,2.7672699E-2,2.3216307E-1,1.2458619E0,2.6713682E-2,1.0619472E0,-1.4176913E-2,8.8634305E-2,-7.719989E-2,-8.781504E-2,1.412408E-1,1.0240505E0,-7.4482285E-3,1.8558083E-1,-5.13097E-2,-8.702084E-2,2.7566984E-2,6.203596E-2,-8.6513095E-2,-8.620041E-2,3.2604814E-2,-7.669925E-2,5.706243E-2,-7.714546E-2,8.495213E-2,-8.8108666E-2,7.036844E-2,-7.260967E-2,4.2983133E-2],"split_indices":[2050,2128,174,2499,80,2906,2110,3786,2053,0,2050,858,2096,2222,155,0,0,0,0,0,0,0,0,0,0,0,0,0,0],"split_type":[0,0,0,0,0,0,0,0,0,0,0,0,0,0,0,0,0,0,0,0,0,0,0,0,0,0,0,0,0],"sum_hessian":[1.4788314E5,4.1169086E4,1.06714055E5,3.816317E4,3.0059165E3,3.3234586E4,7.347947E4,3.7255918E4,9.0725165E2,1.2829083E3,1.7230083E3,2.7942457E4,5.2921284E3,7.029789E4,3.1815813E3,3.7126137E4,1.2978343E2,4.899425E2,4.1730914E2,5.3689856E2,1.1861097E3,2.500184E4,2.940617E3,2.0013907E2,5.0919897E3,7.971261E2,6.9500766E4,2.4604988E3,7.2108264E2],"tree_param":{"num_deleted":"0","num_feature":"4096","num_nodes":"29","size_leaf_vector":"1"}},{"base_weights":[-7.413524E-4,6.194193E-1,-1.5679935E0,-1.2391703E0,1.072508E0,-1.6002074E0,5.387107E-1,-1.6372889E0,1.566409E0,1.2510169E0,1.12321615E-1,-1.21967435E-1,-1.6332476E0,-7.85818E-2,1.1924895E0,-8.4765725E-2,-6.364014E-3,-7.0484996E-2,8.23879E-2,6.545204E-2,-5.8321334E-2,-7.462704E-2,3.781784E-2,6.098603E-2,-8.2160674E-2,-8.40157E-2,-5.4921497E-2,-0E0,6.700368E-2],"categories":[],"categories_nodes":[],"categories_segments":[],"categories_sizes":[],"default_left":[0,0,0,0,0,0,0,0,0,0,0,0,0,0,0,0,0,0,0,0,0,0,0,0,0,0,0,0,0],"id":4,"left_children":[1,3,5,7,9,11,13,15,17,19,21,23,25,-1,27,-1,-1,-1,-1,-1,-1,-1,-1,-1,-1,-1,-1,-1,-1],"loss_changes":[1.4220986E5,8.8287445E4,2.8291719E3,2.2977662E4,1.4438883E4,1.9850312E3,8.859334E2,1.5659961E3,6.434946E2,9.984828E3,1.3680818E4,1.8743586E3,9.7366406E2,0E0,8.809125E1,0E0,0E0,0E0,0E0,0E0,0E0,0E0,0E0,0E0,0E0,0E0,0E0,0E0,0E0],"parents":[2147483647,0,0,1,1,2,2,3,3,4,4,5,5,6,6,7,7,8,8,9,9,10,10,11,11,12,12,14,14],"right_children":[2,4,6,8,10,12,14,16,18,20,22,24,26,-1,28,-1,-1,-1,-1,-1,-1,-1,-1,-1,-1,-1,-1,-1,-1],"split_conditions":[-1.6098773E-1,1.0518428E-1,1.2458619E0,-1.6107027E-1,-3.0394867E-2,-1.25092E0,-9.538405E-2,8.4749043E-1,1.1065387E-2,-3.0644616E-2,5.237515E-2,8.5209824E-2,5.5567525E-2,-7.85818E-2,-1.9543314E-2,-8.4765725E-2,-6.364014E-3,-7.0484996E-2,8.23879E-2,6.545204E-2,-5.8321334E-2,-7.462704E-2,3.781784E-2,6.098603E-2,-8.2160674E-2,-8.40157E-2,-5.4921497E-2,-0E0,6.700368E-2],"split_indices":[2160,45,2499,2160,197,2366,2052,707,2049,2263,2233,2095,2296,0,153,0,0,0,0,0,0,0,0,0,0,0,0,0,0],"split_type":[0,0,0,0,0,0,0,0,0,0,0,0,0,0,0,0,0,0,0,0,0,0,0,0,0,0,0,0,0],"sum_hessian":[1.4628938E5,1.04816445E5,4.1472934E4,2.0538451E4,8.427799E4,4.0853023E4,6.199106E2,1.7991377E4,2.5470742E3,7.105911E4,1.3218881E4,8.97479E2,3.9955547E4,1.4149352E2,4.7841708E2,1.732123E4,6.70146E2,6.1789375E1,2.485285E3,6.940001E4,1.6590981E3,3.7796025E3,9.439278E3,4.7619037E2,4.2128867E2,3.6695418E4,3.2601282E3,5.2602005E1,4.2581506E2],"tree_param":{"num_deleted":"0","num_feature":"4096","num_nodes":"29","size_leaf_vector":"1"}},{"base_weights":[-2.6728463E-4,-1.5161953E0,5.790365E-1,-1.5835025E0,-7.347144E-1,-7.676697E-1,1.163206E0,-1.6200604E0,2.734008E-3,-1.0290016E0,1.7315352E0,1.4910711E0,-1.208371E0,1.2579293E0,-8.705028E-1,3.7953033E-4,-8.145282E-2,-8.018311E-2,5.5997457E-2,-6.8891756E-2,1.1258081E-2,-4.898584E-2,9.887416E-2,8.0230914E-2,-7.693989E-2,-7.33345E-2,5.3888835E-2,-7.9495974E-2,6.497219E-2,-7.014054E-2,3.3238105E-2],"categories":[],"categories_nodes":[],"categories_segments":[],"categories_sizes":[],"default_left":[0,0,0,0,0,0,0,0,0,0,0,0,0,0,0,0,0,0,0,0,0,0,0,0,0,0,0,0,0,0,0],"id":5,"left_children":[1,3,5,7,9,11,13,15,17,19,21,23,25,27,29,-1,-1,-1,-1,-1,-1,-1,-1,-1,-1,-1,-1,-1,-1,-1,-1],"loss_changes":[1.2694913E5,2.0791406E3,8.2287625E4,2.1413047E3,2.3325034E3,3.1516402E4,1.4065898E4,5.347656E2,1.5151781E3,1.2608142E3,2.5269653E2,1.80325E3,1.5658984E4,8.260734E3,2.6691067E3,0E0,0E0,0E0,0E0,0E0,0E0,0E0,0E0,0E0,0E0,0E0,0E0,0E0,0E0,0E0,0E0],"parents":[2147483647,0,0,1,1,2,2,3,3,4,4,5,5,6,6,7,7,8,8,9,9,10,10,11,11,12,12,13,13,14,14],"right_children":[2,4,6,8,10,12,14,16,18,20,22,24,26,28,30,-1,-1,-1,-1,-1,-1,-1,-1,-1,-1,-1,-1,-1,-1,-1,-1],"split_conditions":[1.4419354E-1,5.590981E-2,1.2632999E-1,1.2458619E0,9.81771E-1,1.446781E-1,-1.4176913E-2,-1.4486979E0,-3.270833E-2,7.236527E-2,9.3538016E-1,4.7114037E-2,9.801177E-1,-9.919128E-2,-5.230837E-2,3.7953033E-4,-8.145282E-2,-8.018311E-2,5.5997457E-2,-6.8891756E-2,1.1258081E-2,-4.898584E-2,9.887416E-2,8.0230914E-2,-7.693989E-2,-7.33345E-2,5.3888835E-2,-7.9495974E-2,6.497219E-2,-7.014054E-2,3.3238105E-2],"split_indices":[2050,2296,45,2499,1009,2050,2110,2522,2056,2299,311,2155,804,2202,155,0,0,0,0,0,0,0,0,0,0,0,0,0,0,0,0],"split_type":[0,0,0,0,0,0,0,0,0,0,0,0,0,0,0,0,0,0,0,0,0,0,0,0,0,0,0,0,0,0,0],"sum_hessian":[1.4453355E5,3.9959523E4,1.0457402E5,3.6775473E4,3.184053E3,3.1634412E4,7.293962E4,3.5949875E4,8.255964E2,2.8516345E3,3.324186E2,5.1587783E3,2.6475633E4,6.9699516E4,3.2400999E3,1.9455365E2,3.575532E4,3.3503467E2,4.9056168E2,2.2334282E3,6.182062E2,2.3474916E1,3.089437E2,4.9785566E3,1.8022165E2,2.3792965E4,2.6826697E3,9.943541E2,6.8705164E4,2.4089773E3,8.3112244E2],"tree_param":{"num_deleted":"0","num_feature":"4096","num_nodes":"31","size_leaf_vector":"1"}},{"base_weights":[-2.8802273E-3,5.726541E-1,-1.4661452E0,-1.1952039E0,9.8472524E-1,-1.4966648E0,4.9828687E-1,-1.5628022E0,1.4576066E0,1.0691679E0,-9.966492E-1,-1.5301267E0,6.7452736E-2,-7.338943E-2,1.0955575E0,-7.902836E-2,4.858487E-2,-6.616094E-2,7.703601E-2,5.835239E-2,-1.954153E-2,-7.604771E-2,-9.9613005E-3,1.3665055E-2,-7.721286E-2,5.934898E-2,-7.667978E-2,-2.3634376E-3,6.2107116E-2],"categories":[],"categories_nodes":[],"categories_segments":[],"categories_sizes":[],"default_left":[0,0,0,0,0,0,0,0,0,0,0,0,0,0,0,0,0,0,0,0,0,0,0,0,0,0,0,0,0],"id":6,"left_children":[1,3,5,7,9,11,13,15,17,19,21,23,25,-1,27,-1,-1,-1,-1,-1,-1,-1,-1,-1,-1,-1,-1,-1,-1],"loss_changes":[1.200724E5,7.455092E4,2.4255312E3,1.8887158E4,1.3895992E4,2.0829453E3,7.4314557E2,7.8366797E2,5.664204E2,1.1384109E4,1.4077932E3,9.99625E2,1.5161631E3,0E0,8.760559E1,0E0,0E0,0E0,0E0,0E0,0E0,0E0,0E0,0E0,0E0,0E0,0E0,0E0,0E0],"parents":[2147483647,0,0,1,1,2,2,3,3,4,4,5,5,6,6,7,7,8,8,9,9,10,10,11,11,12,12,14,14],"right_children":[2,4,6,8,10,12,14,16,18,20,22,24,26,-1,28,-1,-1,-1,-1,-1,-1,-1,-1,-1,-1,-1,-1,-1,-1],"split_conditions":[-1.6098773E-1,1.0429389E-1,1.2458619E0,-1.6107027E-1,4.4154987E-2,1.396931E-1,-9.538405E-2,4.3832844E-1,1.1065387E-2,-4.7753062E-2,-8.756136E-3,-8.207368E-1,1.6646408E-2,-7.338943E-2,1.2231175E0,-7.902836E-2,4.858487E-2,-6.616094E-2,7.703601E-2,5.835239E-2,-1.954153E-2,-7.604771E-2,-9.9613005E-3,1.3665055E-2,-7.721286E-2,5.934898E-2,-7.667978E-2,-2.3634376E-3,6.2107116E-2],"split_indices":[2160,45,2499,2160,2232,2357,2052,444,2049,8,232,2511,2055,0,906,0,0,0,0,0,0,0,0,0,0,0,0,0,0],"split_type":[0,0,0,0,0,0,0,0,0,0,0,0,0,0,0,0,0,0,0,0,0,0,0,0,0,0,0,0,0],"sum_hessian":[1.4255155E5,1.0231247E5,4.0239082E4,1.9334197E4,8.297827E4,3.9628336E4,6.107437E2,1.6986396E4,2.347801E3,7.959327E4,3.3849958E3,3.880165E4,8.266876E2,1.3695927E2,4.7378442E2,1.6873861E4,1.12535904E2,6.205901E1,2.285742E3,7.45976E4,4.9956724E3,2.0329739E3,1.3520219E3,2.9748428E2,3.8504164E4,4.898624E2,3.368252E2,5.0754025E1,4.230304E2],"tree_param":{"num_deleted":"0","num_feature":"4096","num_nodes":"29","size_leaf_vector":"1"}},{"base_weights":[-3.116644E-3,5.489675E-1,-1.4240171E0,-6.9989085E-1,1.0868583E0,-1.4536264E0,4.763821E-1,-1.0804237E0,1.4850891E0,-1.497919E0,1.1419516E0,-1.4853777E0,6.63661E-2,-7.12204E-2,1.0535836E0,-6.8083346E-2,1.9263178E-2,-6.770458E-2,7.700845E-2,4.612513E-2,-8.253828E-2,6.015711E-2,-3.7893835E-2,1.2444843E-2,-7.493119E-2,-7.4450694E-2,5.8470864E-2,-2.7084524E-2,5.824816E-2],"categories":[],"categories_nodes":[],"categories_segments":[],"categories_sizes":[],"default_left":[0,0,0,0,0,0,0,0,0,0,0,0,0,0,0,0,0,0,0,0,0,0,0,0,0,0,0,0,0],"id":7,"left_children":[1,3,5,7,9,11,13,15,17,19,21,23,25,-1,27,-1,-1,-1,-1,-1,-1,-1,-1,-1,-1,-1,-1,-1,-1],"loss_changes":[1.1024123E5,6.799162E4,2.2245938E3,2.5348035E4,1.0089289E4,1.8770938E3,6.804821E2,1.0710297E4,7.2889355E2,5.6595605E2,8.0644688E3,8.815E2,1.3862228E3,0E0,9.370654E1,0E0,0E0,0E0,0E0,0E0,0E0,0E0,0E0,0E0,0E0,0E0,0E0,0E0,0E0],"parents":[2147483647,0,0,1,1,2,2,3,3,4,4,5,5,6,6,7,7,8,8,9,9,10,10,11,11,12,12,14,14],"right_children":[2,4,6,8,10,12,14,16,18,20,22,24,26,-1,28,-1,-1,-1,-1,-1,-1,-1,-1,-1,-1,-1,-1,-1,-1],"split_conditions":[-1.6098773E-1,-7.296392E-2,1.2458619E0,-1.6107027E-1,1.4165376E-1,1.396931E-1,1.3269815E-1,4.4152805E-1,1.1065387E-2,-9.3976185E-2,-8.389014E-2,-8.207368E-1,1.4073327E-1,-7.12204E-2,-7.4460628E-3,-6.8083346E-2,1.9263178E-2,-6.770458E-2,7.700845E-2,4.612513E-2,-8.253828E-2,6.015711E-2,-3.7893835E-2,1.2444843E-2,-7.493119E-2,-7.4450694E-2,5.8470864E-2,-2.7084524E-2,5.824816E-2],"split_indices":[2160,202,2499,2160,2050,2357,2050,945,2049,2241,2207,2511,2050,0,71,0,0,0,0,0,0,0,0,0,0,0,0,0,0],"split_type":[0,0,0,0,0,0,0,0,0,0,0,0,0,0,0,0,0,0,0,0,0,0,0,0,0,0,0,0,0],"sum_hessian":[1.4050644E5,1.01191555E5,3.931488E4,3.0459441E4,7.073211E4,3.8716637E4,5.982446E2,2.5947762E4,4.511679E3,1.4688004E3,6.926331E4,3.7927875E4,7.887625E2,1.3391315E2,4.6433145E2,2.1773816E4,4.173945E3,7.964486E1,4.4320347E3,8.2309525E1,1.386491E3,6.7108164E4,2.155151E3,2.8327988E2,3.7644594E4,3.2394513E2,4.648174E2,2.4852081E1,4.3947937E2],"tree_param":{"num_deleted":"0","num_feature":"4096","num_nodes":"29","size_leaf_vector":"1"}},{"base_weights":[2.4872532E-4,5.318827E-1,-1.3808717E0,-1.1293517E0,9.1369057E-1,-1.4116226E0,7.453682E-2,-1.4788821E0,1.3760821E0,-1.4248036E0,9.788515E-1,-2.2474349E-1,-1.4436643E0,-7.244032E-2,1.0983646E0,-7.475128E-2,4.60266E-2,-6.274548E-2,7.284921E-2,4.3691244E-2,-7.680451E-2,-4.4164993E-2,5.232184E-2,5.1133882E-2,-6.384645E-2,-2.6332868E-2,-7.353449E-2,-3.5311628E-2,6.740015E-2],"categories":[],"categories_nodes":[],"categories_segments":[],"categories_sizes":[],"default_left":[0,0,0,0,0,0,0,0,0,0,0,0,0,0,0,0,0,0,0,0,0,0,0,0,0,0,0,0,0],"id":8,"left_children":[1,3,5,7,9,11,13,15,17,19,21,23,25,-1,27,-1,-1,-1,-1,-1,-1,-1,-1,-1,-1,-1,-1,-1,-1],"loss_changes":[1.0136938E5,6.324171E4,1.7250469E3,1.6338107E4,1.236507E4,1.4176016E3,1.262022E3,6.5026953E2,5.055835E2,5.7943994E2,9.937461E3,1.3318805E3,8.889922E2,0E0,2.3173785E2,0E0,0E0,0E0,0E0,0E0,0E0,0E0,0E0,0E0,0E0,0E0,0E0,0E0,0E0],"parents":[2147483647,0,0,1,1,2,2,3,3,4,4,5,5,6,6,7,7,8,8,9,9,10,10,11,11,12,12,14,14],"right_children":[2,4,6,8,10,12,14,16,18,20,22,24,26,-1,28,-1,-1,-1,-1,-1,-1,-1,-1,-1,-1,-1,-1,-1,-1],"split_conditions":[-1.6098773E-1,1.0429389E-1,1.396931E-1,-1.6107027E-1,1.4165376E-1,-2.3194326E-1,1.4073327E-1,4.3832844E-1,1.1065387E-2,-9.3976185E-2,2.8447093E-2,-3.7503734E-2,-2.5963306E-1,-7.244032E-2,1.0172381E0,-7.475128E-2,4.60266E-2,-6.274548E-2,7.284921E-2,4.3691244E-2,-7.680451E-2,-4.4164993E-2,5.232184E-2,5.1133882E-2,-6.384645E-2,-2.6332868E-2,-7.353449E-2,-3.5311628E-2,6.740015E-2],"split_indices":[2160,45,2357,2160,2050,2867,2050,444,2049,2241,2185,2048,2475,0,890,0,0,0,0,0,0,0,0,0,0,0,0,0,0],"split_type":[0,0,0,0,0,0,0,0,0,0,0,0,0,0,0,0,0,0,0,0,0,0,0,0,0,0,0,0,0],"sum_hessian":[1.3804408E5,9.9682945E4,3.8361137E4,1.8622842E4,8.10601E4,3.7571043E4,7.90095E2,1.6348213E4,2.2746282E3,2.1897314E3,7.887037E4,9.9383386E2,3.657721E4,3.1394495E2,4.7615005E2,1.62447705E4,1.03442924E2,6.1684654E1,2.2129436E3,9.5879906E1,2.0938516E3,2.755461E3,7.611491E4,4.5268292E2,5.4115094E2,1.058284E3,3.5518926E4,5.3206856E1,4.229432E2],"tree_param":{"num_deleted":"0","num_feature":"4096","num_nodes":"29","size_leaf_vector":"1"}},{"base_weights":[1.6940416E-4,-1.386381E0,4.910731E-1,-1.4197203E0,7.670446E-1,-6.663873E-1,1.0170692E0,-0E0,-1.4510527E0,-7.921393E-1,1.2319757E0,1.3520768E0,-1.0107039E0,-7.2629184E-1,1.106338E0,-7.032203E-2,4.8508074E-2,-7.300889E-2,3.2282334E-2,-0E0,-6.778783E-2,6.965823E-2,-4.5478627E-2,-6.862967E-2,7.327406E-2,-6.134523E-2,6.333714E-2,-8.2971655E-2,9.163125E-3,5.802163E-2,-4.2240527E-2],"categories":[],"categories_nodes":[],"categories_segments":[],"categories_sizes":[],"default_left":[0,0,0,0,0,0,0,0,0,0,0,0,0,0,0,0,0,0,0,0,0,0,0,0,0,0,0,0,0,0,0],"id":9,"left_children":[1,3,5,7,9,11,13,15,17,19,21,23,25,27,29,-1,-1,-1,-1,-1,-1,-1,-1,-1,-1,-1,-1,-1,-1,-1,-1],"loss_changes":[9.254323E4,2.5663516E3,6.1144984E4,1.5583594E3,4.0789496E2,2.1819852E4,1.0755914E4,1.0580438E3,6.689297E2,5.7432045E1,1.6252637E2,1.4341553E3,1.32181E4,2.8679292E3,6.945E3,0E0,0E0,0E0,0E0,0E0,0E0,0E0,0E0,0E0,0E0,0E0,0E0,0E0,0E0,0E0,0E0],"parents":[2147483647,0,0,1,1,2,2,3,3,4,4,5,5,6,6,7,7,8,8,9,9,10,10,11,11,12,12,13,13,14,14],"right_children":[2,4,6,8,10,12,14,16,18,20,22,24,26,28,30,-1,-1,-1,-1,-1,-1,-1,-1,-1,-1,-1,-1,-1,-1,-1,-1],"split_conditions":[1.0518428E-1,7.670963E-2,-3.292509E-2,-6.620766E-1,5.523717E-1,1.05302E-1,8.855631E-3,-2.1402301E-2,8.8634305E-2,-4.1370392E-1,1.2366713E-2,1.2563629E-2,1.1106066E0,7.0779757E-3,-3.6244307E-2,-7.032203E-2,4.8508074E-2,-7.300889E-2,3.2282334E-2,-0E0,-6.778783E-2,6.965823E-2,-4.5478627E-2,-6.862967E-2,7.327406E-2,-6.134523E-2,6.333714E-2,-8.2971655E-2,9.163125E-3,5.802163E-2,-4.2240527E-2],"split_indices":[2093,2299,201,2800,977,2093,2130,2056,3786,870,2049,2049,858,253,2120,0,0,0,0,0,0,0,0,0,0,0,0,0,0,0,0],"split_type":[0,0,0,0,0,0,0,0,0,0,0,0,0,0,0,0,0,0,0,0,0,0,0,0,0,0,0,0,0,0,0],"sum_hessian":[1.3594705E5,3.553906E4,1.00407984E5,3.5002875E4,5.3618524E2,3.136868E4,6.9039305E4,7.556142E2,3.424726E4,1.1907284E2,4.1711243E2,4.5648257E3,2.6803855E4,3.3567527E3,6.5682555E4,3.063637E2,4.4925052E2,3.4104254E4,1.4300496E2,5.3764046E1,6.530879E1,3.9333636E2,2.3776083E1,1.762039E2,4.3886216E3,2.4486162E4,2.317692E3,1.6555366E3,1.7012161E3,6.39171E4,1.7654525E3],"tree_param":{"num_deleted":"0","num_feature":"4096","num_nodes":"31","size_leaf_vector":"1"}},{"base_weights":[-1.1221942E-3,4.9743047E-1,-1.3150598E0,-1.0794597E0,8.54817E-1,-7.582223E-1,-1.3923303E0,-1.4086506E0,1.308532E0,-1.345689E0,9.164402E-1,2.1020167E-1,-1.4057657E0,-1.4022118E0,4.5285246E-1,-7.124274E-2,4.5099758E-2,-5.9313517E-2,6.926938E-2,-7.279488E-2,4.5219187E-2,6.462657E-3,5.318904E-2,-6.4277016E-2,4.2353954E-2,-7.1433805E-2,3.274614E-2,2.3199038E-3,-7.059186E-2,-3.042352E-2,4.3939956E-2],"categories":[],"categories_nodes":[],"categories_segments":[],"categories_sizes":[],"default_left":[0,0,0,0,0,0,0,0,0,0,0,0,0,0,0,0,0,0,0,0,0,0,0,0,0,0,0,0,0,0,0],"id":10,"left_children":[1,3,5,7,9,11,13,15,17,19,21,23,25,27,29,-1,-1,-1,-1,-1,-1,-1,-1,-1,-1,-1,-1,-1,-1,-1,-1],"loss_changes":[8.724313E4,5.441468E4,1.5549727E3,1.4042443E4,1.0683684E4,2.8271316E3,5.973047E2,6.027363E2,4.324685E2,5.4809546E2,8.874262E3,1.7295184E3,1.4058301E2,4.5345312E2,8.6318115E1,0E0,0E0,0E0,0E0,0E0,0E0,0E0,0E0,0E0,0E0,0E0,0E0,0E0,0E0,0E0,0E0],"parents":[2147483647,0,0,1,1,2,2,3,3,4,4,5,5,6,6,7,7,8,8,9,9,10,10,11,11,12,12,13,13,14,14],"right_children":[2,4,6,8,10,12,14,16,18,20,22,24,26,28,30,-1,-1,-1,-1,-1,-1,-1,-1,-1,-1,-1,-1,-1,-1,-1,-1],"split_conditions":[-1.6098773E-1,1.0429389E-1,-1.3809733E0,-1.6107027E-1,1.4165376E-1,-4.9970787E-2,8.8634305E-2,4.3832844E-1,1.3726468E-1,-9.236019E-3,4.4583283E-2,-5.8693916E-1,2.355405E-1,-1.2622131E0,-3.9191756E-2,-7.124274E-2,4.5099758E-2,-5.9313517E-2,6.926938E-2,-7.279488E-2,4.5219187E-2,6.462657E-3,5.318904E-2,-6.4277016E-2,4.2353954E-2,-7.1433805E-2,3.274614E-2,2.3199038E-3,-7.059186E-2,-3.042352E-2,4.3939956E-2],"split_indices":[2160,45,2318,2160,2050,2209,3786,444,2050,2263,142,2496,316,2932,2048,0,0,0,0,0,0,0,0,0,0,0,0,0,0,0,0],"split_type":[0,0,0,0,0,0,0,0,0,0,0,0,0,0,0,0,0,0,0,0,0,0,0,0,0,0,0,0,0,0,0],"sum_hessian":[1.3315573E5,9.6531E4,3.662474E4,1.7829225E4,7.870177E4,4.484044E3,3.2140697E4,1.5674631E4,2.1545947E3,2.1360488E3,7.656573E4,1.7964386E3,2.6876052E3,3.1974574E4,1.6612268E2,1.5571428E4,1.032028E2,5.8133125E1,2.0964617E3,2.0417935E3,9.4255264E1,1.2079906E4,6.448582E4,5.310955E2,1.265343E3,2.6634863E3,2.4118923E1,2.0737291E2,3.1767201E4,4.298761E1,1.2313507E2],"tree_param":{"num_deleted":"0","num_feature":"4096","num_nodes":"31","size_leaf_vector":"1"}},{"base_weights":[-3.439299E-3,-1.2886591E0,4.6613136E-1,-1.3537798E0,-5.1900876E-1,8.423313E-1,-9.7940314E-1,-1.3852875E0,-2.8149018E-1,-8.0493385E-1,1.6683364E0,9.3690354E-1,-8.241078E-1,1.3112199E0,-1.3272663E0,9.881447E-3,-6.973192E-2,4.5395516E-2,-7.077827E-2,-5.679828E-2,8.387137E-3,-4.075378E-2,9.4910234E-2,5.9289534E-2,2.8781367E-2,-7.013725E-2,1.3944369E-3,-5.7593316E-2,6.893954E-2,7.327956E-2,-6.768388E-2],"categories":[],"categories_nodes":[],"categories_segments":[],"categories_sizes":[],"default_left":[0,0,0,0,0,0,0,0,0,0,0,0,0,0,0,0,0,0,0,0,0,0,0,0,0,0,0,0,0,0,0],"id":11,"left_children":[1,3,5,7,9,11,13,15,17,19,21,23,25,27,29,-1,-1,-1,-1,-1,-1,-1,-1,-1,-1,-1,-1,-1,-1,-1,-1],"loss_changes":[7.884142E4,1.7357812E3,5.203591E4,1.0763359E3,1.7286353E3,1.1973926E4,1.5762018E4,4.719414E2,1.2790071E3,7.9249805E2,2.0303699E2,6.44534E3,2.0186394E3,4.5110938E2,1.285123E3,0E0,0E0,0E0,0E0,0E0,0E0,0E0,0E0,0E0,0E0,0E0,0E0,0E0,0E0,0E0,0E0],"parents":[2147483647,0,0,1,1,2,2,3,3,4,4,5,5,6,6,7,7,8,8,9,9,10,10,11,11,12,12,13,13,14,14],"right_children":[2,4,6,8,10,12,14,16,18,20,22,24,26,28,30,-1,-1,-1,-1,-1,-1,-1,-1,-1,-1,-1,-1,-1,-1,-1,-1],"split_conditions":[1.4419354E-1,2.7672699E-2,-1.6100694E-1,1.5099251E0,9.81771E-1,-8.389014E-2,1.4448184E-1,-1.4486979E0,1.3299133E-2,-6.682888E-2,7.9724157E-1,-3.6201537E-1,-8.756136E-3,9.768497E-3,-1.3028127E0,9.881447E-3,-6.973192E-2,4.5395516E-2,-7.077827E-2,-5.679828E-2,8.387137E-3,-4.075378E-2,9.4910234E-2,5.9289534E-2,2.8781367E-2,-7.013725E-2,1.3944369E-3,-5.7593316E-2,6.893954E-2,7.327956E-2,-6.768388E-2],"split_indices":[2050,2128,112,2758,1009,2207,2050,2522,2055,2251,301,2511,232,2049,884,0,0,0,0,0,0,0,0,0,0,0,0,0,0,0,0],"split_type":[0,0,0,0,0,0,0,0,0,0,0,0,0,0,0,0,0,0,0,0,0,0,0,0,0,0,0,0,0,0,0],"sum_hessian":[1.3061321E5,3.494944E4,9.566377E4,3.2210037E4,2.7394028E3,7.591464E4,1.9749129E4,3.128324E4,9.267967E2,2.4303223E3,3.0908063E2,7.184475E4,4.0698923E3,2.5982175E3,1.7150912E4,1.7939552E2,3.1103844E4,4.5118564E2,4.7561102E2,1.8158085E3,6.145138E2,2.2185598E1,2.8689505E2,4.251739E4,2.9327357E4,2.4234204E3,1.6464719E3,6.3114334E1,2.5351033E3,1.537937E2,1.6997117E4],"tree_param":{"num_deleted":"0","num_feature":"4096","num_nodes":"31","size_leaf_vector":"1"}},{"base_weights":[1.9926007E-3,4.6804026E-1,-1.2555496E0,8.2402676E-1,-9.332164E-1,-1.2830055E0,4.3086845E-1,8.847625E-1,-1.0984262E0,-1.2779424E0,1.2879704E0,-1.3364916E0,-5.5946183E-1,-6.278497E-2,9.250339E-1,4.7066446E-2,-5.492241E-2,4.71516E-2,-6.6176645E-2,5.584332E-2,-6.628292E-2,-5.7269346E-2,6.76336E-2,4.7743466E-2,-6.729867E-2,-5.711739E-2,3.6062926E-2,5.4145426E-2,-1.5090376E-2],"categories":[],"categories_nodes":[],"categories_segments":[],"categories_sizes":[],"default_left":[0,0,0,0,0,0,0,0,0,0,0,0,0,0,0,0,0,0,0,0,0,0,0,0,0,0,0,0,0],"id":12,"left_children":[1,3,5,7,9,11,13,15,17,19,21,23,25,-1,27,-1,-1,-1,-1,-1,-1,-1,-1,-1,-1,-1,-1,-1,-1],"loss_changes":[7.51448E4,4.6675445E4,1.615E3,8.720383E3,1.4529967E4,1.3033945E3,4.76643E2,8.1242344E3,1.065335E3,1.8916074E3,4.1793555E2,7.047383E2,1.7811658E3,0E0,9.261078E1,0E0,0E0,0E0,0E0,0E0,0E0,0E0,0E0,0E0,0E0,0E0,0E0,0E0,0E0],"parents":[2147483647,0,0,1,1,2,2,3,3,4,4,5,5,6,6,7,7,8,8,9,9,10,10,11,11,12,12,14,14],"right_children":[2,4,6,8,10,12,14,16,18,20,22,24,26,-1,28,-1,-1,-1,-1,-1,-1,-1,-1,-1,-1,-1,-1,-1,-1],"split_conditions":[-1.6098773E-1,-1.6100694E-1,1.2458619E0,-3.0644616E-2,-1.6107027E-1,-1.6884744E-2,1.3269815E-1,1.8702777E-2,-1.3793817E0,-1.2622131E0,1.1065387E-2,-1.4486979E0,1.95227E-1,-6.278497E-2,-2.229651E-1,4.7066446E-2,-5.492241E-2,4.71516E-2,-6.6176645E-2,5.584332E-2,-6.628292E-2,-5.7269346E-2,6.76336E-2,4.7743466E-2,-6.729867E-2,-5.711739E-2,3.6062926E-2,5.4145426E-2,-1.5090376E-2],"split_indices":[2160,112,2499,2263,2160,2278,2050,2246,867,884,2049,2522,2698,0,500,0,0,0,0,0,0,0,0,0,0,0,0,0,0],"split_type":[0,0,0,0,0,0,0,0,0,0,0,0,0,0,0,0,0,0,0,0,0,0,0,0,0,0,0,0,0],"sum_hessian":[1.2820382E5,9.354581E4,3.465801E4,7.460121E4,1.8944604E4,3.4108066E4,5.4994275E2,7.232427E4,2.2769321E3,1.6405053E4,2.5395503E3,3.1745947E4,2.3621206E3,1.1883498E2,4.311078E2,7.0326164E4,1.9981134E3,2.2076297E2,2.056169E3,3.1405664E2,1.6090995E4,5.944851E1,2.4801018E3,1.2454268E2,3.1621404E4,1.6267383E3,7.353823E2,3.8660648E2,4.4501305E1],"tree_param":{"num_deleted":"0","num_feature":"4096","num_nodes":"29","size_leaf_vector":"1"}},{"base_weights":[-2.2929884E-3,4.4992128E-1,-1.2331778E0,-5.968773E-1,9.066314E-1,-1.2596693E0,3.860255E-1,-9.263584E-1,1.31222E0,9.683785E-1,-8.1681836E-1,-1.2884218E0,5.9505004E-2,-6.1510593E-2,8.638957E-1,-5.896735E-2,4.8096042E-2,-5.9052963E-2,6.821126E-2,-6.1590523E-2,5.022431E-2,2.4410602E-2,-6.6433094E-2,-6.705175E-2,-3.677171E-2,-6.47442E-2,4.7049522E-2,4.9402542E-2,-2.9997757E-2],"categories":[],"categories_nodes":[],"categories_segments":[],"categories_sizes":[],"default_left":[0,0,0,0,0,0,0,0,0,0,0,0,0,0,0,0,0,0,0,0,0,0,0,0,0,0,0,0,0],"id":13,"left_children":[1,3,5,7,9,11,13,15,17,19,21,23,25,-1,27,-1,-1,-1,-1,-1,-1,-1,-1,-1,-1,-1,-1,-1,-1],"loss_changes":[6.990247E4,4.391097E4,1.4566328E3,1.7558559E4,6.813574E3,1.2663516E3,4.3188226E2,1.1382102E4,5.4969336E2,4.9161562E3,1.4898312E3,9.2534375E2,8.6300354E2,0E0,8.620889E1,0E0,0E0,0E0,0E0,0E0,0E0,0E0,0E0,0E0,0E0,0E0,0E0,0E0,0E0],"parents":[2147483647,0,0,1,1,2,2,3,3,4,4,5,5,6,6,7,7,8,8,9,9,10,10,11,11,12,12,14,14],"right_children":[2,4,6,8,10,12,14,16,18,20,22,24,26,-1,28,-1,-1,-1,-1,-1,-1,-1,-1,-1,-1,-1,-1,-1,-1],"split_conditions":[-1.6098773E-1,2.3216307E-1,1.2458619E0,-1.6107027E-1,4.4154987E-2,1.396931E-1,1.3269815E-1,1.0240505E0,1.3726468E-1,1.4165376E-1,-8.387106E-2,5.5567525E-2,1.4073327E-1,-6.1510593E-2,2.4962151E-1,-5.896735E-2,4.8096042E-2,-5.9052963E-2,6.821126E-2,-6.1590523E-2,5.022431E-2,2.4410602E-2,-6.6433094E-2,-6.705175E-2,-3.677171E-2,-6.47442E-2,4.7049522E-2,4.9402542E-2,-2.9997757E-2],"split_indices":[2160,174,2499,2160,2232,2357,2050,858,2050,2050,193,2296,2050,0,427,0,0,0,0,0,0,0,0,0,0,0,0,0,0],"split_type":[0,0,0,0,0,0,0,0,0,0,0,0,0,0,0,0,0,0,0,0,0,0,0,0,0,0,0,0,0],"sum_hessian":[1.2555601E5,9.182334E4,3.373266E4,2.7888268E4,6.393508E4,3.319487E4,5.377894E2,2.3790207E4,4.0980605E3,6.17307E4,2.2043801E3,3.2490734E4,7.0413586E2,1.1674192E2,4.2104752E2,2.0985064E4,2.805142E3,7.733114E1,4.0207295E3,9.891353E2,6.0741562E4,6.183884E2,1.5859917E3,2.964674E4,2.8439956E3,2.7351785E2,4.30618E2,3.9427356E2,2.6773954E1],"tree_param":{"num_deleted":"0","num_feature":"4096","num_nodes":"29","size_leaf_vector":"1"}},{"base_weights":[-4.664955E-4,4.36064E-1,-1.2046251E0,-6.0288465E-1,8.7144995E-1,-1.2321182E0,6.1941743E-2,-9.3807864E-1,1.2849624E0,9.2286265E-1,-1.0237191E0,-4.576773E-2,-1.2608433E0,-6.354352E-2,9.0958416E-1,-5.8193535E-2,5.849429E-2,-5.704845E-2,6.661109E-2,4.8665393E-2,-4.825854E-2,-1.05739E-1,-6.0804277E-3,-6.066507E-2,4.432225E-2,-6.584307E-2,-3.504413E-2,-2.7424011E-2,6.180199E-2],"categories":[],"categories_nodes":[],"categories_segments":[],"categories_sizes":[],"default_left":[0,0,0,0,0,0,0,0,0,0,0,0,0,0,0,0,0,0,0,0,0,0,0,0,0,0,0,0,0],"id":14,"left_children":[1,3,5,7,9,11,13,15,17,19,21,23,25,-1,27,-1,-1,-1,-1,-1,-1,-1,-1,-1,-1,-1,-1,-1,-1],"loss_changes":[6.4602973E4,4.0804664E4,1.1453086E3,1.6866277E4,6.2024844E3,1.0837383E3,8.0103265E2,1.078409E4,4.7685742E2,5.904383E3,1.6408298E3,8.5179126E2,9.6089844E2,0E0,2.1786737E2,0E0,0E0,0E0,0E0,0E0,0E0,0E0,0E0,0E0,0E0,0E0,0E0,0E0,0E0],"parents":[2147483647,0,0,1,1,2,2,3,3,4,4,5,5,6,6,7,7,8,8,9,9,10,10,11,11,12,12,14,14],"right_children":[2,4,6,8,10,12,14,16,18,20,22,24,26,-1,28,-1,-1,-1,-1,-1,-1,-1,-1,-1,-1,-1,-1,-1,-1],"split_conditions":[-1.6098773E-1,1.2632999E-1,1.396931E-1,-1.6107027E-1,-8.7496445E-2,-6.620766E-1,1.4073327E-1,1.1106066E0,1.3726468E-1,-3.6244307E-2,5.237515E-2,3.032245E-2,5.5567525E-2,-6.354352E-2,5.523717E-1,-5.8193535E-2,5.849429E-2,-5.704845E-2,6.661109E-2,4.8665393E-2,-4.825854E-2,-1.05739E-1,-6.0804277E-3,-6.066507E-2,4.432225E-2,-6.584307E-2,-3.504413E-2,-2.7424011E-2,6.180199E-2],"split_indices":[2160,45,2357,2160,2097,2800,2050,858,2050,2120,185,2068,2296,0,977,0,0,0,0,0,0,0,0,0,0,0,0,0,0],"split_type":[0,0,0,0,0,0,0,0,0,0,0,0,0,0,0,0,0,0,0,0,0,0,0,0,0,0,0,0,0],"sum_hessian":[1.2287334E5,9.018264E4,3.2690703E4,2.6627318E4,6.3555324E4,3.20003E4,6.904034E2,2.2618928E4,4.0083914E3,6.1884277E4,1.6710475E3,7.612327E2,3.1239068E4,2.6415726E2,4.2624612E2,2.0436723E4,2.1822046E3,7.015109E1,3.9382402E3,6.0281156E4,1.603121E3,7.4772437E2,9.233232E2,3.390028E2,4.2222992E2,2.837773E4,2.8613372E3,7.393034E1,3.523158E2],"tree_param":{"num_deleted":"0","num_feature":"4096","num_nodes":"29","size_leaf_vector":"1"}},{"base_weights":[-1.1899663E-3,-1.2297686E0,4.073361E-1,-1.2600474E0,6.103059E-1,-1.003361E0,7.2162735E-1,-1.2906569E0,3.7965116E-1,-1.2042403E0,9.603241E-1,1.1034195E0,-1.2826507E0,7.996984E-1,-8.212301E-1,-6.503747E-2,4.0419195E-2,-5.8849324E-2,3.9372206E-2,-7.424638E-2,-3.587221E-3,5.5710144E-2,-4.4446655E-2,-5.8325447E-2,6.24519E-2,-6.580692E-2,-1.7024217E-3,5.5111982E-2,2.1939939E-2,-6.358441E-2,-3.2219873E-3],"categories":[],"categories_nodes":[],"categories_segments":[],"categories_sizes":[],"default_left":[0,0,0,0,0,0,0,0,0,0,0,0,0,0,0,0,0,0,0,0,0,0,0,0,0,0,0,0,0,0,0],"id":15,"left_children":[1,3,5,7,9,11,13,15,17,19,21,23,25,27,29,-1,-1,-1,-1,-1,-1,-1,-1,-1,-1,-1,-1,-1,-1,-1,-1],"loss_changes":[6.0246473E4,1.6798789E3,3.9941156E4,1.4888555E3,3.2091858E2,9.672125E3,8.8801875E3,6.260664E2,3.5321344E2,1.6962654E1,1.2991983E2,6.5106396E2,5.9900586E2,7.6447266E3,1.2027429E3,0E0,0E0,0E0,0E0,0E0,0E0,0E0,0E0,0E0,0E0,0E0,0E0,0E0,0E0,0E0,0E0],"parents":[2147483647,0,0,1,1,2,2,3,3,4,4,5,5,6,6,7,7,8,8,9,9,10,10,11,11,12,12,13,13,14,14],"right_children":[2,4,6,8,10,12,14,16,18,20,22,24,26,28,30,-1,-1,-1,-1,-1,-1,-1,-1,-1,-1,-1,-1,-1,-1,-1,-1],"split_conditions":[1.0518428E-1,7.670963E-2,1.0429389E-1,1.2458619E0,2.3059221E-2,1.05302E-1,1.0153889E-1,8.8634305E-2,8.147753E-3,3.230181E-2,-2.1146454E-2,1.2563629E-2,8.4749043E-1,-4.0001976E-1,-5.4871097E-2,-6.503747E-2,4.0419195E-2,-5.8849324E-2,3.9372206E-2,-7.424638E-2,-3.587221E-3,5.5710144E-2,-4.4446655E-2,-5.8325447E-2,6.24519E-2,-6.580692E-2,-1.7024217E-3,5.5111982E-2,2.1939939E-2,-6.358441E-2,-3.2219873E-3],"split_indices":[2093,2299,45,2499,105,2093,2238,3786,2049,917,91,2049,707,2511,155,0,0,0,0,0,0,0,0,0,0,0,0,0,0,0,0],"split_type":[0,0,0,0,0,0,0,0,0,0,0,0,0,0,0,0,0,0,0,0,0,0,0,0,0,0,0,0,0,0,0],"sum_hessian":[1.2000711E5,2.9944826E4,9.006228E4,2.946583E4,4.789965E2,1.6402371E4,7.3659914E4,2.8930934E4,5.348972E2,7.119921E1,4.0779727E2,1.91435E3,1.4488021E4,7.01198E4,3.5401177E3,2.8798652E4,1.3228099E2,1.04577576E2,4.3031967E2,5.102559E1,2.017362E1,3.8263632E2,2.5160944E1,1.09108116E2,1.8052418E3,1.4105173E4,3.8284814E2,3.8125168E4,3.1994625E4,2.2107947E3,1.3293231E3],"tree_param":{"num_deleted":"0","num_feature":"4096","num_nodes":"31","size_leaf_vector":"1"}},{"base_weights":[-3.1042376E-3,4.081889E-1,-1.1657858E0,-5.8363545E-1,8.2017875E-1,-1.1918885E0,3.2142705E-1,-9.026956E-1,1.2470865E0,8.7595165E-1,-9.721208E-1,-1.2451656E0,-5.017172E-1,-5.8286767E-2,7.5358087E-1,-5.5939622E-2,5.4980077E-2,-5.4902967E-2,6.469639E-2,4.600741E-2,-4.4418894E-2,-9.909565E-2,-1.9246297E-3,5.9517357E-3,-6.2879376E-2,-5.2135613E-2,3.2764006E-2,-1.20854555E-2,4.8523553E-2],"categories":[],"categories_nodes":[],"categories_segments":[],"categories_sizes":[],"default_left":[0,0,0,0,0,0,0,0,0,0,0,0,0,0,0,0,0,0,0,0,0,0,0,0,0,0,0,0,0],"id":16,"left_children":[1,3,5,7,9,11,13,15,17,19,21,23,25,-1,27,-1,-1,-1,-1,-1,-1,-1,-1,-1,-1,-1,-1,-1,-1],"loss_changes":[5.6190086E4,3.5469902E4,1.2001836E3,1.4888622E4,6.138301E3,1.0947969E3,3.50047E2,9.402041E3,4.3068848E2,4.6466836E3,1.7358932E3,4.8176953E2,1.3772607E3,0E0,9.721567E1,0E0,0E0,0E0,0E0,0E0,0E0,0E0,0E0,0E0,0E0,0E0,0E0,0E0,0E0],"parents":[2147483647,0,0,1,1,2,2,3,3,4,4,5,5,6,6,7,7,8,8,9,9,10,10,11,11,12,12,14,14],"right_children":[2,4,6,8,10,12,14,16,18,20,22,24,26,-1,28,-1,-1,-1,-1,-1,-1,-1,-1,-1,-1,-1,-1,-1,-1],"split_conditions":[-1.6098773E-1,1.2632999E-1,1.2458619E0,-1.6107027E-1,2.3572352E-2,-1.6884744E-2,-9.538405E-2,1.1106066E0,1.1828969E-2,-3.6244307E-2,8.299512E-3,-1.2622131E0,1.95227E-1,-5.8286767E-2,1.1210989E-1,-5.5939622E-2,5.4980077E-2,-5.4902967E-2,6.469639E-2,4.600741E-2,-4.4418894E-2,-9.909565E-2,-1.9246297E-3,5.9517357E-3,-6.2879376E-2,-5.2135613E-2,3.2764006E-2,-1.20854555E-2,4.8523553E-2],"split_indices":[2160,45,2499,2160,2274,2278,2052,858,2051,2120,253,2932,2698,0,207,0,0,0,0,0,0,0,0,0,0,0,0,0,0],"split_type":[0,0,0,0,0,0,0,0,0,0,0,0,0,0,0,0,0,0,0,0,0,0,0,0,0,0,0,0,0],"sum_hessian":[1.1747473E5,8.677919E4,3.0695543E4,2.5463074E4,6.131611E4,3.017134E4,5.242028E2,2.1690611E4,3.7724624E3,5.947332E4,1.8427926E3,2.7995006E4,2.1763328E3,1.1160248E2,4.1260034E2,1.9583936E4,2.1066765E3,6.738923E1,3.705073E3,5.8027348E4,1.44597E3,8.7731934E2,9.654732E2,2.4820796E2,2.7746799E4,1.486552E3,6.897807E2,6.949525E1,3.431051E2],"tree_param":{"num_deleted":"0","num_feature":"4096","num_nodes":"29","size_leaf_vector":"1"}},{"base_weights":[-1.9420414E-3,-1.1927487E0,3.816775E-1,-1.2227488E0,5.486745E-1,7.9001826E-1,-5.9407306E-1,-1.2516421E0,3.73998E-1,1.0642766E0,-6.9074E-1,-6.012066E-1,8.705638E-1,-9.116639E-1,1.1226178E0,-6.308505E-2,3.3019036E-2,-5.6471623E-2,3.8782757E-2,-7.384608E-3,5.9186637E-2,-5.977282E-2,3.4147098E-3,-7.7170014E-2,1.0266672E-2,2.8487971E-2,5.627931E-2,5.1742513E-2,-5.570218E-2,-5.909906E-2,6.202488E-2],"categories":[],"categories_nodes":[],"categories_segments":[],"categories_sizes":[],"default_left":[0,0,0,0,0,0,0,0,0,0,0,0,0,0,0,0,0,0,0,0,0,0,0,0,0,0,0,0,0,0,0],"id":17,"left_children":[1,3,5,7,9,11,13,15,17,19,21,23,25,27,29,-1,-1,-1,-1,-1,-1,-1,-1,-1,-1,-1,-1,-1,-1,-1,-1],"loss_changes":[5.233492E4,1.468457E3,3.4526465E4,1.2754219E3,3.1394315E2,6.8518125E3,1.3946297E4,5.2997266E2,3.0438327E2,5.6664856E1,6.135225E1,2.5522598E3,4.415336E3,8.513092E3,1.0996924E3,0E0,0E0,0E0,0E0,0E0,0E0,0E0,0E0,0E0,0E0,0E0,0E0,0E0,0E0,0E0,0E0],"parents":[2147483647,0,0,1,1,2,2,3,3,4,4,5,5,6,6,7,7,8,8,9,9,10,10,11,11,12,12,13,13,14,14],"right_children":[2,4,6,8,10,12,14,16,18,20,22,24,26,28,30,-1,-1,-1,-1,-1,-1,-1,-1,-1,-1,-1,-1,-1,-1,-1,-1],"split_conditions":[1.0518428E-1,7.670963E-2,-1.7354999E-2,1.2458619E0,-1.2520592E-1,8.855631E-3,1.0619472E0,8.8634305E-2,-7.1055025E-2,1.0172381E0,1.0452999E-1,7.0779757E-3,9.3175054E-1,-1.0994778E0,1.9275535E-2,-6.308505E-2,3.3019036E-2,-5.6471623E-2,3.8782757E-2,-7.384608E-3,5.9186637E-2,-5.977282E-2,3.4147098E-3,-7.7170014E-2,1.0266672E-2,2.8487971E-2,5.627931E-2,5.1742513E-2,-5.570218E-2,-5.909906E-2,6.202488E-2],"split_indices":[2093,2299,217,2499,93,2130,2906,3786,2057,890,190,253,2991,721,2051,0,0,0,0,0,0,0,0,0,0,0,0,0,0,0,0],"split_type":[0,0,0,0,0,0,0,0,0,0,0,0,0,0,0,0,0,0,0,0,0,0,0,0,0,0,0,0,0,0,0],"sum_hessian":[1.1453555E5,2.7905393E4,8.663015E4,2.743855E4,4.6684323E2,6.1077094E4,2.5553059E4,2.6956068E4,4.8248148E2,3.335374E2,1.3330582E2,3.3356294E3,5.7741465E4,2.1570145E4,3.9829128E3,2.6820984E4,1.3508498E2,9.527878E1,3.8720273E2,2.595773E1,3.0757968E2,8.056927E1,5.2736553E1,1.5370836E3,1.7985458E3,2.6516555E4,3.1224908E4,2.0252438E3,1.9544902E4,1.8735512E2,3.7955576E3],"tree_param":{"num_deleted":"0","num_feature":"4096","num_nodes":"31","size_leaf_vector":"1"}},{"base_weights":[-3.8755077E-3,3.842169E-1,-1.1242242E0,-5.369957E-1,7.797681E-1,-3.762461E-1,-1.1783113E0,7.726005E-1,-9.144009E-1,1.0793898E0,4.5233846E-1,6.36708E-1,-6.237855E-2,-2.554526E-1,-1.2198315E0,-4.402956E-2,6.390693E-2,3.4839783E-2,-5.3857047E-2,-3.2806925E-2,5.6479838E-2,-2.3664568E-2,3.7985634E-2,5.4465946E-2,-1.0553802E-2,4.10138E-2,-6.0407113E-2,-6.228158E-2,-3.852455E-2],"categories":[],"categories_nodes":[],"categories_segments":[],"categories_sizes":[],"default_left":[0,0,0,0,0,0,0,0,0,0,0,0,0,0,0,0,0,0,0,0,0,0,0,0,0,0,0,0,0],"id":18,"left_children":[1,3,5,7,9,11,13,15,17,19,21,23,-1,25,27,-1,-1,-1,-1,-1,-1,-1,-1,-1,-1,-1,-1,-1,-1],"loss_changes":[4.878531E4,3.0367951E4,1.1557031E3,1.2380137E4,5.707215E3,1.7476862E3,1.02065234E3,4.69563E3,5.106714E3,2.661211E3,7.9383257E3,3.5735098E2,0E0,1.2175134E3,2.7877344E2,0E0,0E0,0E0,0E0,0E0,0E0,0E0,0E0,0E0,0E0,0E0,0E0,0E0,0E0],"parents":[2147483647,0,0,1,1,2,2,3,3,4,4,5,5,6,6,7,7,8,8,9,9,10,10,11,11,13,13,14,14],"right_children":[2,4,6,8,10,12,14,16,18,20,22,24,-1,26,28,-1,-1,-1,-1,-1,-1,-1,-1,-1,-1,-1,-1,-1,-1],"split_conditions":[-1.6098773E-1,-3.292509E-2,1.9233757E-1,-6.0432583E-1,-1.2251819E0,-1.1275244E0,-9.2817223E-1,-2.3245681E-2,1.7018731E-1,-4.0013723E-2,5.358866E-2,-1.1256129E0,-6.237855E-2,-5.6414396E-1,5.8118764E-2,-4.402956E-2,6.390693E-2,3.4839783E-2,-5.3857047E-2,-3.2806925E-2,5.6479838E-2,-2.3664568E-2,3.7985634E-2,5.4465946E-2,-1.0553802E-2,4.10138E-2,-6.0407113E-2,-6.228158E-2,-3.852455E-2],"split_indices":[2160,201,2726,2812,682,2416,2669,2643,351,127,2190,682,0,2822,2296,0,0,0,0,0,0,0,0,0,0,0,0,0,0],"split_type":[0,0,0,0,0,0,0,0,0,0,0,0,0,0,0,0,0,0,0,0,0,0,0,0,0,0,0,0,0],"sum_hessian":[1.1217357E5,8.331507E4,2.8858502E4,2.5022682E4,5.8292387E4,1.9576691E3,2.6900834E4,5.592608E3,1.9430072E4,3.0418781E4,2.7873607E4,9.0385333E2,1.0538157E3,1.1664464E3,2.5734387E4,1.3056409E3,4.286967E3,1.7766758E3,1.7653396E4,8.49048E2,2.9569732E4,6.943181E3,2.0930426E4,5.912489E2,3.1260443E2,5.460341E2,6.2041223E2,2.4309732E4,1.4246559E3],"tree_param":{"num_deleted":"0","num_feature":"4096","num_nodes":"29","size_leaf_vector":"1"}},{"base_weights":[-3.3042529E-3,3.732647E-1,-1.1082705E0,6.573628E-1,-8.56576E-1,-3.7684447E-1,-1.1616958E0,3.1235248E-1,9.56639E-1,-1.1342943E0,1.1335961E0,6.2076455E-1,-6.099174E-2,-1.1953452E0,-3.0874634E-1,2.8899083E-2,-3.121976E-2,5.077625E-2,-7.851764E-2,5.640856E-2,-5.9302088E-2,-4.872087E-2,5.9687395E-2,5.309726E-2,-7.8118257E-3,3.457088E-3,-6.0429562E-2,-6.074379E-2,3.5658937E-2],"categories":[],"categories_nodes":[],"categories_segments":[],"categories_sizes":[],"default_left":[0,0,0,0,0,0,0,0,0,0,0,0,0,0,0,0,0,0,0,0,0,0,0,0,0,0,0,0,0],"id":19,"left_children":[1,3,5,7,9,11,13,15,17,19,21,23,-1,25,27,-1,-1,-1,-1,-1,-1,-1,-1,-1,-1,-1,-1,-1,-1],"loss_changes":[4.543921E4,2.8458336E4,1.0726211E3,6.8223066E3,8.459934E3,1.6173971E3,7.309219E2,7.656378E3,5.2834785E3,1.5846953E3,2.5039282E2,3.0750558E2,0E0,4.2303906E2,9.37622E2,0E0,0E0,0E0,0E0,0E0,0E0,0E0,0E0,0E0,0E0,0E0,0E0,0E0,0E0],"parents":[2147483647,0,0,1,1,2,2,3,3,4,4,5,5,6,6,7,7,8,8,9,9,10,10,11,11,13,13,14,14],"right_children":[2,4,6,8,10,12,14,16,18,20,22,24,-1,26,28,-1,-1,-1,-1,-1,-1,-1,-1,-1,-1,-1,-1,-1,-1],"split_conditions":[-1.6098773E-1,-1.605123E-1,1.9233757E-1,9.3175054E-1,-1.6107027E-1,-6.997495E-1,7.3187363E-1,-3.3869732E-2,-4.0587272E-2,-1.2622131E0,1.1065387E-2,-1.132547E0,-6.099174E-2,-1.2622131E0,8.878918E-2,2.8899083E-2,-3.121976E-2,5.077625E-2,-7.851764E-2,5.640856E-2,-5.9302088E-2,-4.872087E-2,5.9687395E-2,5.309726E-2,-7.8118257E-3,3.457088E-3,-6.0429562E-2,-6.074379E-2,3.5658937E-2],"split_indices":[2160,112,2726,2991,2160,2525,2519,197,2271,884,2049,682,0,2932,2386,0,0,0,0,0,0,0,0,0,0,0,0,0,0],"split_type":[0,0,0,0,0,0,0,0,0,0,0,0,0,0,0,0,0,0,0,0,0,0,0,0,0,0,0,0,0],"sum_hessian":[1.0917491E5,8.142696E4,2.774795E4,6.615387E4,1.5273087E4,1.900675E3,2.5847273E4,3.074625E4,3.540762E4,1.3408774E4,1.8643124E3,8.689958E2,1.0316793E3,2.4856785E4,9.904891E2,2.396093E4,6.785322E3,3.460909E4,7.985297E2,2.9301776E2,1.3115757E4,4.5199055E1,1.8191134E3,5.560428E2,3.1295294E2,2.5333559E2,2.460345E4,5.2658057E2,4.6390845E2],"tree_param":{"num_deleted":"0","num_feature":"4096","num_nodes":"29","size_leaf_vector":"1"}},{"base_weights":[-3.7520004E-3,-1.1422207E0,3.4970364E-1,-1.1723595E0,5.0502324E-1,6.3794863E-1,-8.386895E-1,-1.2019659E0,3.3153343E-1,-9.163311E-1,9.925289E-1,3.039276E-1,9.3655133E-1,-1.1045449E0,1.0830241E0,-6.0641166E-2,3.0817328E-2,-5.401915E-2,3.4031283E-2,6.764372E-3,-6.1828297E-2,-1.0509212E-2,5.5493947E-2,2.7406717E-2,-2.7632354E-2,-4.77369E-2,5.034128E-2,5.5654615E-2,-5.7756968E-2,-5.3444695E-2,5.895583E-2],"categories":[],"categories_nodes":[],"categories_segments":[],"categories_sizes":[],"default_left":[0,0,0,0,0,0,0,0,0,0,0,0,0,0,0,0,0,0,0,0,0,0,0,0,0,0,0,0,0,0,0],"id":20,"left_children":[1,3,5,7,9,11,13,15,17,19,21,23,25,27,29,-1,-1,-1,-1,-1,-1,-1,-1,-1,-1,-1,-1,-1,-1,-1,-1],"loss_changes":[4.3030715E4,1.2670586E3,2.7953027E4,1.1163906E3,3.2768378E2,6.541131E3,8.1494893E3,4.923828E2,2.4442645E2,4.754499E1,5.6140106E1,6.49196E3,4.6167695E3,1.5837832E3,4.139939E2,0E0,0E0,0E0,0E0,0E0,0E0,0E0,0E0,0E0,0E0,0E0,0E0,0E0,0E0,0E0,0E0],"parents":[2147483647,0,0,1,1,2,2,3,3,4,4,5,5,6,6,7,7,8,8,9,9,10,10,11,11,12,12,13,13,14,14],"right_children":[2,4,6,8,10,12,14,16,18,20,22,24,26,28,30,-1,-1,-1,-1,-1,-1,-1,-1,-1,-1,-1,-1,-1,-1,-1,-1],"split_conditions":[1.0518428E-1,7.670963E-2,-1.6100694E-1,1.2458619E0,5.523717E-1,9.3175054E-1,1.1106066E0,8.8634305E-2,8.147753E-3,-8.332518E-1,6.5794736E-2,-3.3869732E-2,-5.2680492E-2,-1.2622131E0,1.2141656E-2,-6.0641166E-2,3.0817328E-2,-5.401915E-2,3.4031283E-2,6.764372E-3,-6.1828297E-2,-1.0509212E-2,5.5493947E-2,2.7406717E-2,-2.7632354E-2,-4.77369E-2,5.034128E-2,5.5654615E-2,-5.7756968E-2,-5.3444695E-2,5.895583E-2],"split_indices":[2093,2299,112,2499,977,2991,2906,3786,2049,296,101,197,2163,884,2049,0,0,0,0,0,0,0,0,0,0,0,0,0,0,0,0],"split_type":[0,0,0,0,0,0,0,0,0,0,0,0,0,0,0,0,0,0,0,0,0,0,0,0,0,0,0,0,0,0,0],"sum_hessian":[1.0690588E5,2.5325412E4,8.158047E4,2.4876184E4,4.4922864E2,6.566279E4,1.5917683E4,2.4401143E4,4.75042E2,1.0986309E2,3.3936554E2,3.101071E4,3.4652074E4,1.3989227E4,1.9284554E3,2.426235E4,1.3879272E2,8.717764E1,3.8786435E2,2.334904E1,8.651405E1,2.56777E1,3.1368784E2,2.4138375E4,6.872337E3,1.2343738E3,3.3417703E4,3.0515085E2,1.3684076E4,7.588126E1,1.8525742E3],"tree_param":{"num_deleted":"0","num_feature":"4096","num_nodes":"31","size_leaf_vector":"1"}},{"base_weights":[-1.090689E-3,-1.1281116E0,3.4136626E-1,-1.1573308E0,4.731395E-1,-9.558284E-1,5.978193E-1,-1.1881784E0,3.4573665E-1,-8.08345E-1,9.590204E-1,1.0056962E0,-1.2071788E0,8.861896E-1,2.379543E-1,3.0665458E-3,-5.9944835E-2,-5.330926E-2,3.450287E-2,1.4924677E-2,-5.7394296E-2,-1.8836668E-2,5.3903777E-2,-5.24756E-2,5.7201363E-2,-6.1165493E-2,7.642666E-2,4.7874395E-2,-6.1016303E-2,2.6894981E-2,-3.3868454E-2],"categories":[],"categories_nodes":[],"categories_segments":[],"categories_sizes":[],"default_left":[0,0,0,0,0,0,0,0,0,0,0,0,0,0,0,0,0,0,0,0,0,0,0,0,0,0,0,0,0,0,0],"id":21,"left_children":[1,3,5,7,9,11,13,15,17,19,21,23,25,27,29,-1,-1,-1,-1,-1,-1,-1,-1,-1,-1,-1,-1,-1,-1,-1,-1],"loss_changes":[4.0314477E4,1.1478652E3,2.6650684E4,1.117084E3,2.8264877E2,6.5321436E3,6.9334766E3,3.203164E2,2.414527E2,5.413919E1,5.951413E1,4.4036572E2,5.3469727E2,5.5855996E3,8.17801E3,0E0,0E0,0E0,0E0,0E0,0E0,0E0,0E0,0E0,0E0,0E0,0E0,0E0,0E0,0E0,0E0],"parents":[2147483647,0,0,1,1,2,2,3,3,4,4,5,5,6,6,7,7,8,8,9,9,10,10,11,11,12,12,13,13,14,14],"right_children":[2,4,6,8,10,12,14,16,18,20,22,24,26,28,30,-1,-1,-1,-1,-1,-1,-1,-1,-1,-1,-1,-1,-1,-1,-1,-1],"split_conditions":[1.0518428E-1,7.670963E-2,1.0365191E-1,1.2458619E0,5.523717E-1,1.05302E-1,5.0712064E-2,-5.8334675E-2,8.147753E-3,-1.286615E-1,3.578737E-1,1.2563629E-2,1.2809895E0,-8.702548E-2,-3.3869732E-2,3.0665458E-3,-5.9944835E-2,-5.330926E-2,3.450287E-2,1.4924677E-2,-5.7394296E-2,-1.8836668E-2,5.3903777E-2,-5.24756E-2,5.7201363E-2,-6.1165493E-2,7.642666E-2,4.7874395E-2,-6.1016303E-2,2.6894981E-2,-3.3868454E-2],"split_indices":[2093,2299,45,2499,977,2093,2331,3475,2049,93,288,2049,273,2248,197,0,0,0,0,0,0,0,0,0,0,0,0,0,0,0,0],"split_type":[0,0,0,0,0,0,0,0,0,0,0,0,0,0,0,0,0,0,0,0,0,0,0,0,0,0,0,0,0,0,0],"sum_hessian":[1.0442335E5,2.4333572E4,8.008977E4,2.3903287E4,4.302854E2,1.321231E4,6.687747E4,2.3427895E4,4.7539362E2,1.1363966E2,3.1664572E2,1.4950577E3,1.1717252E4,3.7110906E4,2.9766559E4,1.9488405E2,2.323301E4,8.624619E1,3.8914743E2,2.3504059E1,9.0135605E1,2.0704802E1,2.9594092E2,8.784935E1,1.4072084E3,1.1655879E4,6.137257E1,3.5903523E4,1.207383E3,2.2426975E4,7.3395835E3],"tree_param":{"num_deleted":"0","num_feature":"4096","num_nodes":"31","size_leaf_vector":"1"}},{"base_weights":[-1.7263757E-3,-1.1140686E0,3.308764E-1,-1.1417694E0,2.90178E-1,-9.140201E-1,5.8175486E-1,1.7552522E-1,-1.1718987E0,6.267632E-1,-5.240158E-2,-1.1569219E0,1.0160736E0,2.430342E-1,8.911791E-1,4.0633403E-2,-4.5251403E-2,-5.919034E-2,1.8384345E-2,4.092666E-2,-3.380173E-2,-5.9734326E-2,8.713546E-3,-5.103321E-2,5.6369793E-2,2.559044E-2,-2.8416637E-2,4.9226344E-2,-3.2167993E-2],"categories":[],"categories_nodes":[],"categories_segments":[],"categories_sizes":[],"default_left":[0,0,0,0,0,0,0,0,0,0,0,0,0,0,0,0,0,0,0,0,0,0,0,0,0,0,0,0,0],"id":22,"left_children":[1,3,5,7,9,11,13,15,17,19,-1,21,23,25,27,-1,-1,-1,-1,-1,-1,-1,-1,-1,-1,-1,-1,-1,-1],"loss_changes":[3.7737516E4,9.209238E2,2.4524123E4,9.211367E2,2.1107211E2,6.1863125E3,6.8416465E3,3.6488596E2,4.2133398E2,1.00125046E2,0E0,5.9555664E2,3.464873E2,6.8110786E3,4.898703E3,0E0,0E0,0E0,0E0,0E0,0E0,0E0,0E0,0E0,0E0,0E0,0E0,0E0,0E0],"parents":[2147483647,0,0,1,1,2,2,3,3,4,4,5,5,6,6,7,7,8,8,9,9,11,11,12,12,13,13,14,14],"right_children":[2,4,6,8,10,12,14,16,18,20,-1,22,24,26,28,-1,-1,-1,-1,-1,-1,-1,-1,-1,-1,-1,-1,-1,-1],"split_conditions":[1.0518428E-1,1.2458619E0,1.0429389E-1,-1.2713104E-1,-7.719989E-2,1.1106066E0,9.3175054E-1,-1.2520592E-1,7.476836E-2,-2.229651E-1,-5.240158E-2,8.4749043E-1,1.7132252E-2,-3.3869732E-2,-6.361805E-2,4.0633403E-2,-4.5251403E-2,-5.919034E-2,1.8384345E-2,4.092666E-2,-3.380173E-2,-5.9734326E-2,8.713546E-3,-5.103321E-2,5.6369793E-2,2.559044E-2,-2.8416637E-2,4.9226344E-2,-3.2167993E-2],"split_indices":[2093,2499,45,2141,2053,2906,2991,93,3651,500,0,707,2051,197,2268,0,0,0,0,0,0,0,0,0,0,0,0,0,0],"split_type":[0,0,0,0,0,0,0,0,0,0,0,0,0,0,0,0,0,0,0,0,0,0,0,0,0,0,0,0,0],"sum_hessian":[1.0197153E5,2.3470234E4,7.85013E4,2.3021531E4,4.487031E2,1.3158832E4,6.534246E4,5.0998572E2,2.2511545E4,3.6576016E2,8.294292E1,1.1693771E4,1.465061E3,3.1210715E4,3.4131746E4,3.252878E2,1.846979E2,2.234428E4,1.6726518E2,3.254146E2,4.034557E1,1.1375831E4,3.179401E2,6.936511E1,1.3956959E3,2.345187E4,7.758846E3,3.2180982E4,1.9507631E3],"tree_param":{"num_deleted":"0","num_feature":"4096","num_nodes":"29","size_leaf_vector":"1"}},{"base_weights":[-2.33144E-3,-1.1001288E0,3.1988746E-1,-1.1303436E0,4.818772E-1,-9.267608E-1,5.5658615E-1,-7.7769525E-2,-1.1640804E0,-6.908944E-1,9.1256E-1,-1.1731442E0,1.0100311E0,2.2422762E-1,8.6543787E-1,2.9804049E-2,-5.6912012E-2,-5.8803618E-2,2.9374862E-2,-0E0,-6.1234087E-2,5.2643783E-2,-2.3514388E-2,-5.956107E-2,8.46064E-2,-4.888773E-2,5.5555172E-2,2.4640149E-2,-2.7688464E-2,4.788431E-2,-3.1143961E-2],"categories":[],"categories_nodes":[],"categories_segments":[],"categories_sizes":[],"default_left":[0,0,0,0,0,0,0,0,0,0,0,0,0,0,0,0,0,0,0,0,0,0,0,0,0,0,0,0,0,0,0],"id":23,"left_children":[1,3,5,7,9,11,13,15,17,19,21,23,25,27,29,-1,-1,-1,-1,-1,-1,-1,-1,-1,-1,-1,-1,-1,-1,-1,-1],"loss_changes":[3.528958E4,1.0908184E3,2.275818E4,7.819453E2,2.2368529E2,5.884794E3,6.6462188E3,5.1357776E2,4.6198047E2,4.2718605E1,7.007248E1,5.8345703E2,2.9116406E2,6.5305723E3,4.6188457E3,0E0,0E0,0E0,0E0,0E0,0E0,0E0,0E0,0E0,0E0,0E0,0E0,0E0,0E0,0E0,0E0],"parents":[2147483647,0,0,1,1,2,2,3,3,4,4,5,5,6,6,7,7,8,8,9,9,10,10,11,11,12,12,13,13,14,14],"right_children":[2,4,6,8,10,12,14,16,18,20,22,24,26,28,30,-1,-1,-1,-1,-1,-1,-1,-1,-1,-1,-1,-1,-1,-1,-1,-1],"split_conditions":[1.0518428E-1,7.670963E-2,1.0365191E-1,-2.3194326E-1,5.447488E-1,1.1106066E0,9.3175054E-1,-8.437557E-2,8.8634305E-2,-1.1389551E0,6.607284E-1,1.2809895E0,-1.04550414E-1,-3.3869732E-2,-6.361805E-2,2.9804049E-2,-5.6912012E-2,-5.8803618E-2,2.9374862E-2,-0E0,-6.1234087E-2,5.2643783E-2,-2.3514388E-2,-5.956107E-2,8.46064E-2,-4.888773E-2,5.5555172E-2,2.4640149E-2,-2.7688464E-2,4.788431E-2,-3.1143961E-2],"split_indices":[2093,2299,45,2867,977,2906,2991,2134,3786,577,424,273,2052,197,2268,0,0,0,0,0,0,0,0,0,0,0,0,0,0,0,0],"split_type":[0,0,0,0,0,0,0,0,0,0,0,0,0,0,0,0,0,0,0,0,0,0,0,0,0,0,0,0,0,0,0],"sum_hessian":[9.97329E4,2.2628648E4,7.710425E4,2.2210465E4,4.181832E2,1.2295555E4,6.48087E4,6.954059E2,2.1515059E4,1.07581604E2,3.106016E2,1.0913722E4,1.3818331E3,3.1232518E4,3.357618E4,4.2500864E2,2.7039725E2,2.137486E4,1.4019965E2,5.167852E1,5.5903084E1,2.8743762E2,2.3163984E1,1.0852838E4,6.0883633E1,6.027135E1,1.3215618E3,2.3225014E4,8.007505E3,3.1623057E4,1.9531246E3],"tree_param":{"num_deleted":"0","num_feature":"4096","num_nodes":"31","size_leaf_vector":"1"}},{"base_weights":[-2.990929E-3,4.6608296E-1,-7.027727E-1,-5.1505136E-1,7.80616E-1,-8.5997194E-1,9.036485E-1,-9.0019256E-1,1.1566025E0,-2.7036424E0,8.065049E-1,6.249085E-1,-9.6242344E-1,1.1404396E0,-1.1469811E0,3.168199E-2,-5.4261167E-2,6.15108E-2,-5.1675715E-2,-1.6091089E-1,-8.467981E-2,5.455348E-2,2.4566783E-2,-5.4866996E-2,6.228691E-2,-2.9160222E-2,-5.88437E-2,5.74669E-2,-0E0,-6.0151387E-2,-0E0],"categories":[],"categories_nodes":[],"categories_segments":[],"categories_sizes":[],"default_left":[0,0,0,0,0,0,0,0,0,0,0,0,0,0,0,0,0,0,0,0,0,0,0,0,0,0,0,0,0,0,0],"id":24,"left_children":[1,3,5,7,9,11,13,15,17,19,21,23,25,27,29,-1,-1,-1,-1,-1,-1,-1,-1,-1,-1,-1,-1,-1,-1,-1,-1],"loss_changes":[3.1925283E4,1.7972512E4,9.86473E3,9.110158E3,3.9899277E3,5.4177812E3,1.7034717E3,3.2720488E3,4.4076538E2,9.042578E1,3.9131523E3,2.4717427E3,2.690334E3,3.0749512E1,1.8672852E1,0E0,0E0,0E0,0E0,0E0,0E0,0E0,0E0,0E0,0E0,0E0,0E0,0E0,0E0,0E0,0E0],"parents":[2147483647,0,0,1,1,2,2,3,3,4,4,5,5,6,6,7,7,8,8,9,9,10,10,11,11,12,12,13,13,14,14],"right_children":[2,4,6,8,10,12,14,16,18,20,22,24,26,28,30,-1,-1,-1,-1,-1,-1,-1,-1,-1,-1,-1,-1,-1,-1,-1,-1],"split_conditions":[-1.0404773E-1,2.3603535E-1,1.0619472E0,1.1106066E0,1.1091905E-2,-1.0994778E0,-2.5164945E-2,-1.3150257E0,-6.1507843E-2,5.5873585E-1,-1.222691E0,8.68253E-1,3.4167204E-2,-8.298748E-3,6.3354266E-1,3.168199E-2,-5.4261167E-2,6.15108E-2,-5.1675715E-2,-1.6091089E-1,-8.467981E-2,5.455348E-2,2.4566783E-2,-5.4866996E-2,6.228691E-2,-2.9160222E-2,-5.88437E-2,5.74669E-2,-0E0,-6.0151387E-2,-0E0],"split_indices":[182,2222,2906,2906,110,721,2146,711,2082,810,682,804,73,164,737,0,0,0,0,0,0,0,0,0,0,0,0,0,0,0,0],"split_type":[0,0,0,0,0,0,0,0,0,0,0,0,0,0,0,0,0,0,0,0,0,0,0,0,0,0,0,0,0,0,0],"sum_hessian":[9.723566E4,5.82117E4,3.9023957E4,1.4125922E4,4.4085777E4,3.5552645E4,3.4713108E3,1.1486981E4,2.6389407E3,3.1609988E2,4.3769676E4,2.28824E3,3.3264406E4,3.1181296E3,3.5318112E2,1.2310225E3,1.0255959E4,2.559575E3,7.936571E1,1.9165001E2,1.2444987E2,2.2980352E4,2.0789326E4,6.021319E2,1.686108E3,1.2037917E4,2.1226488E4,3.0931577E3,2.4971746E1,3.3303168E2,2.0149435E1],"tree_param":{"num_deleted":"0","num_feature":"4096","num_nodes":"31","size_leaf_vector":"1"}},{"base_weights":[-3.04863E-3,2.9689145E-1,-1.1085815E0,-9.0978074E-1,5.223307E-1,-4.789703E-2,-1.1402322E0,-1.1387477E0,9.629964E-1,8.00334E-1,1.8957318E-1,6.209816E-1,-5.6418866E-2,-1.1531519E0,7.737185E-1,-5.784517E-2,7.924881E-2,-4.9433816E-2,5.446626E-2,4.3833382E-2,-5.925091E-2,2.307172E-2,-2.988692E-2,-4.0139668E-2,3.877529E-2,-1.753628E-2,-5.8326185E-2,5.0807238E-2,-0E0],"categories":[],"categories_nodes":[],"categories_segments":[],"categories_sizes":[],"default_left":[0,0,0,0,0,0,0,0,0,0,0,0,0,0,0,0,0,0,0,0,0,0,0,0,0,0,0,0,0],"id":25,"left_children":[1,3,5,7,9,11,13,15,17,19,21,23,-1,25,27,-1,-1,-1,-1,-1,-1,-1,-1,-1,-1,-1,-1,-1,-1],"loss_changes":[3.1460365E4,2.0300633E4,6.732793E2,5.0485654E3,5.8103965E3,4.444107E2,4.9688086E2,5.341113E2,3.2751672E2,5.1989746E3,6.1327275E3,8.864464E1,0E0,1.9789062E2,3.0271515E1,0E0,0E0,0E0,0E0,0E0,0E0,0E0,0E0,0E0,0E0,0E0,0E0,0E0,0E0],"parents":[2147483647,0,0,1,1,2,2,3,3,4,4,5,5,6,6,7,7,8,8,9,9,10,10,11,11,13,13,14,14],"right_children":[2,4,6,8,10,12,14,16,18,20,22,24,-1,26,28,-1,-1,-1,-1,-1,-1,-1,-1,-1,-1,-1,-1,-1,-1],"split_conditions":[-1.1204607E-1,1.0365191E-1,-6.620766E-1,1.1106066E0,5.0712064E-2,1.3299133E-2,8.8634305E-2,1.2809895E0,-1.04550414E-1,-8.702548E-2,-3.3869732E-2,-9.610311E-2,-5.6418866E-2,3.001259E-2,-6.354062E-1,-5.784517E-2,7.924881E-2,-4.9433816E-2,5.446626E-2,4.3833382E-2,-5.925091E-2,2.307172E-2,-2.988692E-2,-4.0139668E-2,3.877529E-2,-1.753628E-2,-5.8326185E-2,5.0807238E-2,-0E0],"split_indices":[2141,45,2800,2906,2331,2055,3786,273,2052,2248,197,159,0,2078,318,0,0,0,0,0,0,0,0,0,0,0,0,0,0],"split_type":[0,0,0,0,0,0,0,0,0,0,0,0,0,0,0,0,0,0,0,0,0,0,0,0,0,0,0,0,0],"sum_hessian":[9.48441E4,7.460575E4,2.0238354E4,1.1735972E4,6.2869777E4,5.917166E2,1.9646637E4,1.0463311E4,1.2726619E3,3.4237156E4,2.863262E4,3.6523843E2,2.2647815E2,1.952145E4,1.2518744E2,1.0401564E4,6.1745884E1,7.081342E1,1.2018484E3,3.2977336E4,1.2598237E3,2.1291191E4,7.341427E3,2.8483511E1,3.367549E2,3.3056897E2,1.919088E4,9.769469E1,2.7492752E1],"tree_param":{"num_deleted":"0","num_feature":"4096","num_nodes":"29","size_leaf_vector":"1"}},{"base_weights":[-4.8149904E-4,2.8937095E-1,-1.09417E0,5.176213E-1,-8.3461714E-1,-5.753692E-2,-1.126284E0,1.08926624E-1,7.497691E-1,-1.0938367E0,8.69618E-1,5.857378E-1,-5.595168E-2,-1.1402998E0,8.107165E-1,2.50123E-2,-1.613779E-2,4.0680394E-2,-3.9748855E-2,-5.7811737E-2,2.5175247E-2,5.5846013E-2,-5.165539E-2,3.6839392E-2,-4.2714246E-2,-2.2649921E-2,-5.7791233E-2,5.0680347E-2,-3.0815082E-3],"categories":[],"categories_nodes":[],"categories_segments":[],"categories_sizes":[],"default_left":[0,0,0,0,0,0,0,0,0,0,0,0,0,0,0,0,0,0,0,0,0,0,0,0,0,0,0,0,0],"id":26,"left_children":[1,3,5,7,9,11,13,15,17,19,21,23,-1,25,27,-1,-1,-1,-1,-1,-1,-1,-1,-1,-1,-1,-1,-1,-1],"loss_changes":[2.9369523E4,1.8788123E4,6.396094E2,5.7703857E3,5.4708145E3,4.1787207E2,5.218828E2,3.7308699E3,3.8340078E3,1.0790508E3,7.812035E2,8.7551605E1,0E0,1.8618164E2,2.9897087E1,0E0,0E0,0E0,0E0,0E0,0E0,0E0,0E0,0E0,0E0,0E0,0E0,0E0,0E0],"parents":[2147483647,0,0,1,1,2,2,3,3,4,4,5,5,6,6,7,7,8,8,9,9,10,10,11,11,13,13,14,14],"right_children":[2,4,6,8,10,12,14,16,18,20,22,24,-1,26,28,-1,-1,-1,-1,-1,-1,-1,-1,-1,-1,-1,-1,-1,-1],"split_conditions":[-1.1204607E-1,-1.1223571E-1,-6.620766E-1,-3.137589E-1,-1.1247059E-1,1.3299133E-2,8.8634305E-2,-2.8273174E-1,1.6409915E-2,4.6843842E-1,4.5742765E-1,2.4962151E-1,-5.595168E-2,-1.5050796E0,-8.458935E-2,2.50123E-2,-1.613779E-2,4.0680394E-2,-3.9748855E-2,-5.7811737E-2,2.5175247E-2,5.5846013E-2,-5.165539E-2,3.6839392E-2,-4.2714246E-2,-2.2649921E-2,-5.7791233E-2,5.0680347E-2,-3.0815082E-3],"split_indices":[2141,93,2800,313,2141,2055,3786,2842,222,393,2352,427,0,2730,225,0,0,0,0,0,0,0,0,0,0,0,0,0,0],"split_type":[0,0,0,0,0,0,0,0,0,0,0,0,0,0,0,0,0,0,0,0,0,0,0,0,0,0,0,0,0],"sum_hessian":[9.2613234E4,7.321292E4,1.9400316E4,6.0863164E4,1.2349753E4,5.8846313E2,1.8811852E4,2.2061055E4,3.8802113E4,1.0724967E4,1.6247854E3,3.6627155E2,2.2219162E2,1.8683355E4,1.2849597E2,1.1576747E4,1.0484307E4,3.726985E4,1.5322583E3,1.0327431E4,3.9753644E2,1.4438784E3,1.8090692E2,3.3906165E2,2.720991E1,4.2647873E2,1.8256877E4,1.0758597E2,2.0909994E1],"tree_param":{"num_deleted":"0","num_feature":"4096","num_nodes":"29","size_leaf_vector":"1"}},{"base_weights":[-1.5801551E-3,2.7847034E-1,-1.0826811E0,-8.8684946E-1,4.879305E-1,-1.1149726E0,-5.7291005E-2,-1.1241362E0,7.87628E-1,1.7280841E-1,7.8662807E-1,-1.1284205E0,6.946484E-1,5.937221E-1,-5.410564E-2,-5.6691933E-2,3.5968695E-2,5.379091E-2,-5.3946834E-2,2.1099053E-2,-2.633909E-2,-5.644225E-2,4.289945E-2,4.3718476E-2,-5.6863405E-2,4.8828997E-2,-0E0,3.820359E-2,-4.2701647E-2],"categories":[],"categories_nodes":[],"categories_segments":[],"categories_sizes":[],"default_left":[0,0,0,0,0,0,0,0,0,0,0,0,0,0,0,0,0,0,0,0,0,0,0,0,0,0,0,0,0],"id":27,"left_children":[1,3,5,7,9,11,13,15,17,19,21,23,25,27,-1,-1,-1,-1,-1,-1,-1,-1,-1,-1,-1,-1,-1,-1,-1],"loss_changes":[2.745731E4,1.758061E4,6.113535E2,4.3701426E3,5.7406143E3,4.5011133E2,3.9913803E2,1.8224512E2,7.4592957E2,5.184383E3,4.291213E3,3.294707E2,2.774479E1,9.515532E1,0E0,0E0,0E0,0E0,0E0,0E0,0E0,0E0,0E0,0E0,0E0,0E0,0E0,0E0,0E0],"parents":[2147483647,0,0,1,1,2,2,3,3,4,4,5,5,6,6,7,7,8,8,9,9,10,10,11,11,12,12,13,13],"right_children":[2,4,6,8,10,12,14,16,18,20,22,24,26,28,-1,-1,-1,-1,-1,-1,-1,-1,-1,-1,-1,-1,-1,-1,-1],"split_conditions":[-1.1204607E-1,1.0365191E-1,1.5099251E0,-1.1247059E-1,9.3175054E-1,8.8634305E-2,1.3299133E-2,6.785924E-1,-2.8674224E-1,-3.3869732E-2,1.0663438E-2,-8.867181E-1,-6.752219E-2,-9.813191E-2,-5.410564E-2,-5.6691933E-2,3.5968695E-2,5.379091E-2,-5.3946834E-2,2.1099053E-2,-2.633909E-2,-5.644225E-2,4.289945E-2,4.3718476E-2,-5.6863405E-2,4.8828997E-2,-0E0,3.820359E-2,-4.2701647E-2],"split_indices":[2141,45,2758,2141,2991,3786,2055,557,2323,197,2179,2549,178,236,0,0,0,0,0,0,0,0,0,0,0,0,0,0,0],"split_type":[0,0,0,0,0,0,0,0,0,0,0,0,0,0,0,0,0,0,0,0,0,0,0,0,0,0,0,0,0],"sum_hessian":[9.065593E4,7.2006125E4,1.8649809E4,1.0962219E4,6.1043902E4,1.8074846E4,5.7496326E2,9.607091E3,1.3551287E3,2.9721076E4,3.1322826E4,1.7947996E4,1.26849304E2,3.5119562E2,2.2376762E2,9.56332E3,4.3769806E1,1.1798756E3,1.7525305E2,2.1923656E4,7.797421E3,1.1171794E3,3.0205646E4,7.2151276E1,1.7875846E4,8.833149E1,3.8517815E1,3.2153793E2,2.9657671E1],"tree_param":{"num_deleted":"0","num_feature":"4096","num_nodes":"29","size_leaf_vector":"1"}},{"base_weights":[-2.0982358E-3,-1.0024065E0,2.9270333E-1,-1.0884712E0,-3.4711063E-1,5.009658E-1,-8.1250554E-1,-2.8076348E-1,-1.1350418E0,-6.8081814E-1,1.3376868E0,7.7342856E-1,1.6725406E-1,1.016027E0,-1.0708379E0,3.071306E-2,-5.449849E-2,-7.94732E-3,-5.7513203E-2,-4.5529008E-2,3.0546332E-2,8.413691E-2,-3.914839E-2,4.18246E-2,-4.3581527E-2,1.5824761E-2,-4.7010817E-2,-3.832057E-2,5.3539075E-2,-5.722781E-2,2.2062229E-2],"categories":[],"categories_nodes":[],"categories_segments":[],"categories_sizes":[],"default_left":[0,0,0,0,0,0,0,0,0,0,0,0,0,0,0,0,0,0,0,0,0,0,0,0,0,0,0,0,0,0,0],"id":28,"left_children":[1,3,5,7,9,11,13,15,17,19,21,23,25,27,29,-1,-1,-1,-1,-1,-1,-1,-1,-1,-1,-1,-1,-1,-1,-1,-1],"loss_changes":[2.6167744E4,1.1282754E3,1.5775072E4,6.6092773E2,1.3363059E3,5.237541E3,5.1435337E3,7.2744434E2,2.4216016E2,5.959937E2,3.0460602E2,3.2996348E3,4.287592E3,1.4126282E2,1.0705771E3,0E0,0E0,0E0,0E0,0E0,0E0,0E0,0E0,0E0,0E0,0E0,0E0,0E0,0E0,0E0,0E0],"parents":[2147483647,0,0,1,1,2,2,3,3,4,4,5,5,6,6,7,7,8,8,9,9,10,10,11,11,12,12,13,13,14,14],"right_children":[2,4,6,8,10,12,14,16,18,20,22,24,26,28,30,-1,-1,-1,-1,-1,-1,-1,-1,-1,-1,-1,-1,-1,-1,-1,-1],"split_conditions":[1.4419354E-1,2.680909E-2,-1.1223571E-1,-1.1639035E0,1.0461107E0,-7.576998E-2,1.4448184E-1,1.8103617E-1,3.001259E-2,7.79758E-1,1.9075584E-1,-3.1411373E-3,-5.091243E-2,9.768497E-3,5.2494043E-1,3.071306E-2,-5.449849E-2,-7.94732E-3,-5.7513203E-2,-4.5529008E-2,3.0546332E-2,8.413691E-2,-3.914839E-2,4.18246E-2,-4.3581527E-2,1.5824761E-2,-4.7010817E-2,-3.832057E-2,5.3539075E-2,-5.722781E-2,2.2062229E-2],"split_indices":[2050,2128,93,2416,260,603,2050,2726,2078,707,430,246,2287,2049,400,0,0,0,0,0,0,0,0,0,0,0,0,0,0,0,0],"split_type":[0,0,0,0,0,0,0,0,0,0,0,0,0,0,0,0,0,0,0,0,0,0,0,0,0,0,0,0,0,0,0],"sum_hessian":[8.8704586E4,2.018993E4,6.851466E4,1.7833488E4,2.356441E3,5.765946E4,1.0855194E4,9.818687E2,1.685162E4,1.9743154E3,3.8212552E2,3.1727234E4,2.5932227E4,1.337734E3,9.517461E3,4.6442285E2,5.1744586E2,2.6556625E2,1.6586053E4,1.6819664E3,2.92349E2,3.3245465E2,4.9670887E1,3.0563535E4,1.1637006E3,2.286291E4,3.0693167E3,3.3273815E1,1.3044601E3,9.080497E3,4.3696332E2],"tree_param":{"num_deleted":"0","num_feature":"4096","num_nodes":"31","size_leaf_vector":"1"}},{"base_weights":[1.928179E-4,4.1101143E-1,-6.42354E-1,-5.1331335E-1,6.951858E-1,-1.1460402E-1,-1.0545688E0,-8.896019E-1,1.1136719E0,-2.4619641E0,7.21869E-1,-8.3039266E-1,3.3491665E-1,3.7695065E-1,-1.092478E0,-5.8939695E-2,5.51954E-3,-4.849984E-2,5.9045102E-2,-1.3175483E-1,-0E0,1.6234612E-2,4.7864374E-2,-5.044934E-2,4.4664077E-2,-2.9037846E-2,3.5792705E-2,6.741019E-2,-4.5563925E-2,-5.584661E-2,4.1383546E-2],"categories":[],"categories_nodes":[],"categories_segments":[],"categories_sizes":[],"default_left":[0,0,0,0,0,0,0,0,0,0,0,0,0,0,0,0,0,0,0,0,0,0,0,0,0,0,0,0,0,0,0],"id":29,"left_children":[1,3,5,7,9,11,13,15,17,19,21,23,25,27,29,-1,-1,-1,-1,-1,-1,-1,-1,-1,-1,-1,-1,-1,-1,-1,-1],"loss_changes":[2.2871686E4,1.38892705E4,7.343618E3,7.6195723E3,3.415752E3,4.778421E3,1.0368594E3,2.9287593E3,3.3989502E2,1.5351831E2,3.7408027E3,1.7733792E3,3.1842305E3,6.316747E2,8.784863E2,0E0,0E0,0E0,0E0,0E0,0E0,0E0,0E0,0E0,0E0,0E0,0E0,0E0,0E0,0E0,0E0],"parents":[2147483647,0,0,1,1,2,2,3,3,4,4,5,5,6,6,7,7,8,8,9,9,10,10,11,11,12,12,13,13,14,14],"right_children":[2,4,6,8,10,12,14,16,18,20,22,24,26,28,30,-1,-1,-1,-1,-1,-1,-1,-1,-1,-1,-1,-1,-1,-1,-1,-1],"split_conditions":[-1.0404773E-1,-7.1592726E-2,-4.8490424E-2,1.1106066E0,1.1091905E-2,1.4263675E0,-1.2622131E0,1.3163382E0,1.1591012E-2,1.7269385E0,3.7230603E-2,9.801177E-1,9.1955654E-2,-8.088262E-1,4.859301E-1,-5.8939695E-2,5.51954E-3,-4.849984E-2,5.9045102E-2,-1.3175483E-1,-0E0,1.6234612E-2,4.7864374E-2,-5.044934E-2,4.4664077E-2,-2.9037846E-2,3.5792705E-2,6.741019E-2,-4.5563925E-2,-5.584661E-2,4.1383546E-2],"split_indices":[182,2250,2209,2906,110,3017,2932,890,2049,3017,792,804,2095,734,2444,0,0,0,0,0,0,0,0,0,0,0,0,0,0,0,0],"split_type":[0,0,0,0,0,0,0,0,0,0,0,0,0,0,0,0,0,0,0,0,0,0,0,0,0,0,0,0,0,0,0],"sum_hessian":[8.6629336E4,5.2850336E4,3.3778996E4,1.2421538E4,4.0428797E4,1.482446E4,1.8954537E4,1.0094493E4,2.3270452E3,3.2960794E2,4.009919E4,5.719591E3,9.104869E3,4.8329117E2,1.8471246E4,7.8325713E3,2.2619216E3,6.62141E1,2.260831E3,3.085567E2,2.1051243E1,1.4939558E4,2.5159633E4,5.188993E3,5.305976E2,2.6695652E3,6.4353037E3,2.774928E2,2.0579839E2,1.8245666E4,2.2558073E2],"tree_param":{"num_deleted":"0","num_feature":"4096","num_nodes":"31","size_leaf_vector":"1"}},{"base_weights":[-3.3270847E-3,2.5268868E-1,-1.0507245E0,-8.602959E-1,4.4290105E-1,-1.0845284E0,-4.508466E-2,-1.079997E0,9.053396E-1,1.3273497E-1,7.439542E-1,-1.0994383E0,4.1063413E-1,5.428832E-1,-5.2649397E-2,-5.5090554E-2,7.485836E-2,-4.618862E-2,5.13017E-2,1.8144095E-2,-2.5099933E-2,-5.673685E-4,4.595097E-2,-1.7332723E-2,-5.5925872E-2,3.7050977E-2,-3.662035E-2,-2.0181915E-2,4.0720984E-2],"categories":[],"categories_nodes":[],"categories_segments":[],"categories_sizes":[],"default_left":[0,0,0,0,0,0,0,0,0,0,0,0,0,0,0,0,0,0,0,0,0,0,0,0,0,0,0,0,0],"id":30,"left_children":[1,3,5,7,9,11,13,15,17,19,21,23,25,27,-1,-1,-1,-1,-1,-1,-1,-1,-1,-1,-1,-1,-1,-1,-1],"loss_changes":[2.2687984E4,1.4392186E4,5.588457E2,3.8591348E3,5.4164043E3,3.6629297E2,3.3760672E2,5.1093945E2,2.5300623E2,4.181891E3,3.899296E3,2.1746484E2,6.6904945E1,9.644111E1,0E0,0E0,0E0,0E0,0E0,0E0,0E0,0E0,0E0,0E0,0E0,0E0,0E0,0E0,0E0],"parents":[2147483647,0,0,1,1,2,2,3,3,4,4,5,5,6,6,7,7,8,8,9,9,10,10,11,11,12,12,13,13],"right_children":[2,4,6,8,10,12,14,16,18,20,22,24,26,28,-1,-1,-1,-1,-1,-1,-1,-1,-1,-1,-1,-1,-1,-1,-1],"split_conditions":[-1.1204607E-1,1.0365191E-1,1.5099251E0,1.1106066E0,9.3175054E-1,2.7349494E-2,1.3299133E-2,-2.3020035E-2,1.2141656E-2,-3.3869732E-2,-9.668387E-2,-1.5050796E0,1.2459632E-1,1.06632106E-1,-5.2649397E-2,-5.5090554E-2,7.485836E-2,-4.618862E-2,5.13017E-2,1.8144095E-2,-2.5099933E-2,-5.673685E-4,4.595097E-2,-1.7332723E-2,-5.5925872E-2,3.7050977E-2,-3.662035E-2,-2.0181915E-2,4.0720984E-2],"split_indices":[2141,45,2758,2906,2991,3369,2055,445,2049,197,2640,2730,2050,45,0,0,0,0,0,0,0,0,0,0,0,0,0,0,0],"split_type":[0,0,0,0,0,0,0,0,0,0,0,0,0,0,0,0,0,0,0,0,0,0,0,0,0,0,0,0,0],"sum_hessian":[8.457443E4,6.7964625E4,1.6609807E4,9.9110205E3,5.8053605E4,1.6064066E4,5.4574E2,8.820221E3,1.0908004E3,2.8609305E4,2.9444299E4,1.5911388E4,1.5267856E2,3.4445346E2,2.0128654E2,8.75379E3,6.643037E1,6.08382E1,1.0299622E3,2.100522E4,7.604085E3,5.5368584E3,2.3907441E4,4.045172E2,1.5506871E4,1.2456548E2,2.8113083E1,7.159813E1,2.7285535E2],"tree_param":{"num_deleted":"0","num_feature":"4096","num_nodes":"29","size_leaf_vector":"1"}},{"base_weights":[-1.98801E-3,-9.654315E-1,2.6820672E-1,-1.0594394E0,-2.82843E-1,4.573094E-1,-7.993716E-1,-2.4139938E-1,-1.110069E0,1.6347018E0,-5.69636E-1,-8.509987E-1,5.247382E-1,9.7548896E-1,-1.0308423E0,3.0529648E-2,-5.3653073E-2,-1.6858652E-2,-5.6489673E-2,6.120201E-2,1.4762907E-1,-3.9285995E-2,3.482957E-2,-8.931994E-2,-1.2289897E-2,5.5609248E-3,3.7199035E-2,-3.621796E-2,5.1662106E-2,6.062615E-3,-5.5856336E-2],"categories":[],"categories_nodes":[],"categories_segments":[],"categories_sizes":[],"default_left":[0,0,0,0,0,0,0,0,0,0,0,0,0,0,0,0,0,0,0,0,0,0,0,0,0,0,0,0,0,0,0],"id":31,"left_children":[1,3,5,7,9,11,13,15,17,19,21,23,25,27,29,-1,-1,-1,-1,-1,-1,-1,-1,-1,-1,-1,-1,-1,-1,-1,-1],"loss_changes":[2.1518354E4,1.1521289E3,1.3031947E4,6.492656E2,1.220356E3,4.840756E3,4.0002578E3,6.788133E2,2.1705273E2,9.888757E1,5.3501324E2,1.5071843E3,4.7240244E3,1.192865E2,8.611221E2,0E0,0E0,0E0,0E0,0E0,0E0,0E0,0E0,0E0,0E0,0E0,0E0,0E0,0E0,0E0,0E0],"parents":[2147483647,0,0,1,1,2,2,3,3,4,4,5,5,6,6,7,7,8,8,9,9,10,10,11,11,12,12,13,13,14,14],"right_children":[2,4,6,8,10,12,14,16,18,20,22,24,26,28,30,-1,-1,-1,-1,-1,-1,-1,-1,-1,-1,-1,-1,-1,-1,-1,-1],"split_conditions":[1.4419354E-1,2.680909E-2,-1.1204607E-1,-1.1639035E0,-2.242007E-1,8.849521E-3,1.4448184E-1,1.8103617E-1,-1.5050796E0,-4.5668656E-1,9.267706E-1,-6.194581E-2,2.3891987E-2,-3.7515815E-2,-1.1499959E0,3.0529648E-2,-5.3653073E-2,-1.6858652E-2,-5.6489673E-2,6.120201E-2,1.4762907E-1,-3.9285995E-2,3.482957E-2,-8.931994E-2,-1.2289897E-2,5.5609248E-3,3.7199035E-2,-3.621796E-2,5.1662106E-2,6.062615E-3,-5.5856336E-2],"split_indices":[2050,2128,93,2416,702,2286,2050,2726,2730,2769,772,155,2840,2048,2932,0,0,0,0,0,0,0,0,0,0,0,0,0,0,0,0],"split_type":[0,0,0,0,0,0,0,0,0,0,0,0,0,0,0,0,0,0,0,0,0,0,0,0,0,0,0,0,0,0,0],"sum_hessian":[8.262866E4,1.8095967E4,6.453269E4,1.5894138E4,2.2018281E3,5.4830785E4,9.701906E3,9.354947E2,1.4958644E4,2.780834E2,1.9237446E3,2.6780823E3,5.2152703E4,1.1131101E3,8.588797E3,4.6044254E2,4.7505215E2,3.830564E2,1.4575587E4,2.2961536E2,4.846805E1,1.6499255E3,2.738191E2,1.0411299E3,1.6369524E3,1.8083248E4,3.4069453E4,2.9938303E1,1.0831718E3,5.9410675E2,7.99469E3],"tree_param":{"num_deleted":"0","num_feature":"4096","num_nodes":"31","size_leaf_vector":"1"}},{"base_weights":[-4.879684E-3,-9.690858E-1,2.3554084E-1,-3.166656E-1,-1.0588522E0,4.3890747E-1,-7.6853913E-1,-5.609792E-2,4.0521666E-1,-1.075154E0,5.962552E-1,7.3936796E-1,1.1134608E-1,9.677041E-1,-9.801507E-1,4.6389308E-2,-2.74979E-2,-6.266944E-3,-5.466683E-2,4.019476E-2,-1.3477894E-2,4.1249413E-2,-3.2792397E-2,1.3012878E-2,-6.351083E-2,-3.6268692E-2,5.1093757E-2,-5.24162E-2,3.497363E-2],"categories":[],"categories_nodes":[],"categories_segments":[],"categories_sizes":[],"default_left":[0,0,0,0,0,0,0,0,0,0,0,0,0,0,0,0,0,0,0,0,0,0,0,0,0,0,0,0,0],"id":32,"left_children":[1,3,5,7,9,11,13,-1,15,17,19,21,23,25,27,-1,-1,-1,-1,-1,-1,-1,-1,-1,-1,-1,-1,-1,-1],"loss_changes":[1.87688E4,9.361836E2,1.3231393E4,1.156557E3,3.917871E2,5.298465E3,4.018606E3,0E0,5.289905E2,2.3540039E2,3.0346092E1,3.3626387E3,5.3062407E3,1.1784363E2,1.1236523E3,0E0,0E0,0E0,0E0,0E0,0E0,0E0,0E0,0E0,0E0,0E0,0E0,0E0,0E0],"parents":[2147483647,0,0,1,1,2,2,3,3,4,4,5,5,6,6,8,8,9,9,10,10,11,11,12,12,13,13,14,14],"right_children":[2,4,6,8,10,12,14,-1,16,18,20,22,24,26,28,-1,-1,-1,-1,-1,-1,-1,-1,-1,-1,-1,-1,-1,-1],"split_conditions":[-9.804136E-2,-4.9847087E-1,-1.605123E-1,8.2561076E-1,8.8634305E-2,-4.0158197E-1,-9.782894E-2,-5.609792E-2,-7.4110705E-1,3.001259E-2,-3.9379258E-2,1.189884E-1,-7.665698E-2,1.1065387E-2,5.563914E-1,4.6389308E-2,-2.74979E-2,-6.266944E-3,-5.466683E-2,4.019476E-2,-1.3477894E-2,4.1249413E-2,-3.2792397E-2,1.3012878E-2,-6.351083E-2,-3.6268692E-2,5.1093757E-2,-5.24162E-2,3.497363E-2],"split_indices":[2202,2800,112,2820,3786,718,2202,0,920,2078,223,207,2239,2049,400,0,0,0,0,0,0,0,0,0,0,0,0,0,0],"split_type":[0,0,0,0,0,0,0,0,0,0,0,0,0,0,0,0,0,0,0,0,0,0,0,0,0,0,0,0,0],"sum_hessian":[8.092892E4,1.6149972E4,6.477895E4,1.9655281E3,1.4184444E4,5.3877246E4,1.0901704E4,9.297422E2,1.0357859E3,1.4052561E4,1.3188345E2,2.808658E4,2.5790666E4,1.1778936E3,9.723811E3,6.730734E2,3.6271243E2,2.7060947E2,1.3781951E4,1.1160766E2,2.027579E1,2.6469873E4,1.6167069E3,2.3291889E4,2.4987766E3,2.9815872E1,1.1480776E3,9.351003E3,3.7280743E2],"tree_param":{"num_deleted":"0","num_feature":"4096","num_nodes":"29","size_leaf_vector":"1"}},{"base_weights":[-1.8986792E-3,-1.0047356E0,2.3903528E-1,-2.4903749E-1,-1.0806516E0,-8.4803563E-1,4.1050425E-1,-1.0609432E0,4.5858622E-1,-1.0978234E0,4.855762E-1,-1.0641199E0,6.89457E-1,-1.081271E-2,6.333354E-1,-5.901204E-3,-5.418504E-2,-1.6674172E-2,4.379713E-2,-5.528384E-2,2.3246596E-2,4.980143E-2,-0E0,-5.4419227E-2,7.2069034E-2,5.025978E-2,-5.122438E-2,-5.5534005E-2,8.905116E-3,3.7123814E-2,-1.8469606E-2],"categories":[],"categories_nodes":[],"categories_segments":[],"categories_sizes":[],"default_left":[0,0,0,0,0,0,0,0,0,0,0,0,0,0,0,0,0,0,0,0,0,0,0,0,0,0,0,0,0,0,0],"id":33,"left_children":[1,3,5,7,9,11,13,15,17,19,21,23,25,27,29,-1,-1,-1,-1,-1,-1,-1,-1,-1,-1,-1,-1,-1,-1,-1,-1],"loss_changes":[1.9142395E4,8.711699E2,1.1905148E4,8.237525E2,3.8325488E2,2.899648E3,5.182875E3,7.0386353E0,2.576857E2,1.7762305E2,3.5000874E1,4.7808496E2,5.921057E2,3.9727388E3,3.95471E3,0E0,0E0,0E0,0E0,0E0,0E0,0E0,0E0,0E0,0E0,0E0,0E0,0E0,0E0,0E0,0E0],"parents":[2147483647,0,0,1,1,2,2,3,3,4,4,5,5,6,6,7,7,8,8,9,9,10,10,11,11,12,12,13,13,14,14],"right_children":[2,4,6,8,10,12,14,16,18,20,22,24,26,28,30,-1,-1,-1,-1,-1,-1,-1,-1,-1,-1,-1,-1,-1,-1,-1,-1],"split_conditions":[1.0439188E-1,-5.312678E-1,1.0365191E-1,-4.5317166E-2,8.8634305E-2,6.299413E-2,2.1187538E-2,-1.0870247E0,5.5665064E-1,6.443253E-1,-2.6363686E-1,1.2809895E0,2.4148831E-2,4.2620707E-2,-6.354566E-2,-5.901204E-3,-5.418504E-2,-1.6674172E-2,4.379713E-2,-5.528384E-2,2.3246596E-2,4.980143E-2,-0E0,-5.4419227E-2,7.2069034E-2,5.025978E-2,-5.122438E-2,-5.5534005E-2,8.905116E-3,3.7123814E-2,-1.8469606E-2],"split_indices":[2093,2800,45,2268,3786,2156,792,638,977,2964,370,273,2055,2210,220,0,0,0,0,0,0,0,0,0,0,0,0,0,0,0,0],"split_type":[0,0,0,0,0,0,0,0,0,0,0,0,0,0,0,0,0,0,0,0,0,0,0,0,0,0,0,0,0,0,0],"sum_hessian":[7.919026E4,1.5338021E4,6.385224E4,1.41009E3,1.3927932E4,8.69016E3,5.516208E4,6.576246E2,7.524654E2,1.3783E4,1.4493141E2,7.6248667E3,1.0652932E3,1.907783E4,3.6084246E4,2.2133432E1,6.3549115E2,2.5622485E2,4.9624054E2,1.3720176E4,6.282415E1,6.210282E1,8.282859E1,7.55931E3,6.555686E1,9.05531E2,1.597622E2,2.7932341E3,1.6284597E4,3.2549059E4,3.5351885E3],"tree_param":{"num_deleted":"0","num_feature":"4096","num_nodes":"31","size_leaf_vector":"1"}},{"base_weights":[-2.7838778E-3,2.4609266E-1,-9.239E-1,-8.4561974E-1,3.9778775E-1,-1.0026592E0,-3.352733E-1,-1.0736085E0,9.421186E-1,7.033667E-1,8.527167E-2,-3.5623875E-1,-1.0779113E0,-6.48908E-1,1.3400271E0,4.5317397E-2,-5.514235E-2,-3.3774E-2,5.0325304E-2,-2.3362046E-2,4.185861E-2,1.7128637E-2,-3.2097436E-2,2.072466E-2,-5.402136E-2,-5.478241E-2,2.9421443E-2,-4.4232598E-3,-5.3999085E-2,-3.7818506E-2,8.558583E-2],"categories":[],"categories_nodes":[],"categories_segments":[],"categories_sizes":[],"default_left":[0,0,0,0,0,0,0,0,0,0,0,0,0,0,0,0,0,0,0,0,0,0,0,0,0,0,0,0,0,0,0],"id":34,"left_children":[1,3,5,7,9,11,13,15,17,19,21,23,25,27,29,-1,-1,-1,-1,-1,-1,-1,-1,-1,-1,-1,-1,-1,-1,-1,-1],"loss_changes":[1.7785895E4,1.0114026E4,7.5510254E2,3.0469243E3,5.1166865E3,6.964951E2,1.0404784E3,3.9385498E2,9.650287E1,4.2512656E3,4.965175E3,8.6651807E2,3.9368164E2,3.963766E2,2.603994E2,0E0,0E0,0E0,0E0,0E0,0E0,0E0,0E0,0E0,0E0,0E0,0E0,0E0,0E0,0E0,0E0],"parents":[2147483647,0,0,1,1,2,2,3,3,4,4,5,5,6,6,7,7,8,8,9,9,10,10,11,11,12,12,13,13,14,14],"right_children":[2,4,6,8,10,12,14,16,18,20,22,24,26,28,30,-1,-1,-1,-1,-1,-1,-1,-1,-1,-1,-1,-1,-1,-1,-1,-1],"split_conditions":[-1.6098773E-1,4.5840554E-2,5.5567525E-2,-1.6107027E-1,-4.0001976E-1,-5.312678E-1,1.0382829E0,8.97374E-3,1.1065387E-2,1.1157422E-2,-3.3869732E-2,3.709825E-2,8.8634305E-2,-1.08503774E-1,7.1932673E-1,4.5317397E-2,-5.514235E-2,-3.3774E-2,5.0325304E-2,-2.3362046E-2,4.185861E-2,1.7128637E-2,-3.2097436E-2,2.072466E-2,-5.402136E-2,-5.478241E-2,2.9421443E-2,-4.4232598E-3,-5.3999085E-2,-3.7818506E-2,8.558583E-2],"split_indices":[2160,248,2296,2160,2511,2800,260,234,2049,2158,197,2133,3786,165,919,0,0,0,0,0,0,0,0,0,0,0,0,0,0,0,0],"split_type":[0,0,0,0,0,0,0,0,0,0,0,0,0,0,0,0,0,0,0,0,0,0,0,0,0,0,0,0,0,0,0],"sum_hessian":[7.755022E4,6.1055516E4,1.6494701E4,7.4391396E3,5.361638E4,1.4534441E4,1.9602604E3,6.6037593E3,8.353805E2,2.7094654E4,2.6521723E4,1.5284791E3,1.3005962E4,1.6588218E3,3.0143857E2,8.9246056E1,6.514513E3,2.5373045E1,8.1000745E2,2.7729553E3,2.43217E4,1.9599354E4,6.9223696E3,7.3917236E2,7.893067E2,1.2875339E4,1.3062283E2,7.314753E2,9.273465E2,4.181164E1,2.5962692E2],"tree_param":{"num_deleted":"0","num_feature":"4096","num_nodes":"31","size_leaf_vector":"1"}},{"base_weights":[-3.4828917E-3,-9.93047E-1,2.2420102E-1,-1.0329716E0,4.9453112E-1,-8.2893693E-1,3.8184685E-1,7.533328E-3,-1.0761546E0,-7.9016364E-1,8.820557E-1,-1.0458889E0,8.8493174E-1,-3.0574987E-2,6.03109E-1,2.5417969E-2,-5.0920155E-2,-5.4649055E-2,2.0575311E-2,1.5442932E-2,-6.8428986E-2,5.10783E-2,-0E0,-5.354153E-2,6.738221E-2,-4.096579E-2,4.9179625E-2,8.152499E-3,-5.215059E-2,3.531353E-2,-2.036377E-2],"categories":[],"categories_nodes":[],"categories_segments":[],"categories_sizes":[],"default_left":[0,0,0,0,0,0,0,0,0,0,0,0,0,0,0,0,0,0,0,0,0,0,0,0,0,0,0,0,0,0,0],"id":35,"left_children":[1,3,5,7,9,11,13,15,17,19,21,23,25,27,29,-1,-1,-1,-1,-1,-1,-1,-1,-1,-1,-1,-1,-1,-1,-1,-1],"loss_changes":[1.7066771E4,8.4934375E2,1.0221655E4,6.257422E2,1.9354655E2,2.9900723E3,4.8903643E3,2.880249E2,3.3983887E2,6.605119E1,4.0616272E1,4.381704E2,1.607727E2,3.6723591E3,3.6384932E3,0E0,0E0,0E0,0E0,0E0,0E0,0E0,0E0,0E0,0E0,0E0,0E0,0E0,0E0,0E0,0E0],"parents":[2147483647,0,0,1,1,2,2,3,3,4,4,5,5,6,6,7,7,8,8,9,9,10,10,11,11,12,12,13,13,14,14],"right_children":[2,4,6,8,10,12,14,16,18,20,22,24,26,28,30,-1,-1,-1,-1,-1,-1,-1,-1,-1,-1,-1,-1,-1,-1,-1,-1],"split_conditions":[1.0439188E-1,7.652403E-2,1.0365191E-1,-2.3194326E-1,1.408819E-2,1.1106066E0,2.1187538E-2,-8.437557E-2,8.8634305E-2,-3.3708802E-1,-3.1262794E-1,1.2809895E0,-5.180093E-2,-8.9078926E-2,-4.7753062E-2,2.5417969E-2,-5.0920155E-2,-5.4649055E-2,2.0575311E-2,1.5442932E-2,-6.8428986E-2,5.10783E-2,-0E0,-5.354153E-2,6.738221E-2,-4.096579E-2,4.9179625E-2,8.152499E-3,-5.215059E-2,3.531353E-2,-2.036377E-2],"split_indices":[2093,2299,45,2867,211,2906,792,2134,3786,573,448,273,2056,2248,8,0,0,0,0,0,0,0,0,0,0,0,0,0,0,0,0],"split_type":[0,0,0,0,0,0,0,0,0,0,0,0,0,0,0,0,0,0,0,0,0,0,0,0,0,0,0,0,0,0,0],"sum_hessian":[7.571173E4,1.4159554E4,6.1552176E4,1.3795713E4,3.638417E2,8.00451E3,5.3547664E4,5.454482E2,1.3250265E4,7.891979E1,2.849219E2,7.1111514E3,8.93358E2,1.869225E4,3.4855414E4,3.7318896E2,1.722592E2,1.3108018E4,1.4224684E2,2.5839428E1,5.3080368E1,2.4878958E2,3.6132324E1,7.045351E3,6.580058E1,4.2116817E1,8.5124115E2,1.5694233E4,2.9980159E3,3.1633547E4,3.221869E3],"tree_param":{"num_deleted":"0","num_feature":"4096","num_nodes":"31","size_leaf_vector":"1"}},{"base_weights":[-2.0055668E-3,2.3289073E-1,-9.0264153E-1,-8.5246474E-1,3.737953E-1,-5.1463574E-1,-1.0295235E0,-1.0549998E0,9.0670645E-1,6.7370695E-1,7.0525035E-2,-8.980401E-1,1.3660248E-1,-1.0708791E0,6.516969E-2,-5.466738E-2,5.484898E-2,-3.0738754E-2,4.857764E-2,-2.6150292E-2,4.0477183E-2,1.5680267E-2,-3.1028122E-2,5.1949E-3,-5.222342E-2,2.5016367E-2,-4.710679E-2,1.6373314E-2,-5.4573324E-2,9.093733E-2,-1.8257163E-2],"categories":[],"categories_nodes":[],"categories_segments":[],"categories_sizes":[],"default_left":[0,0,0,0,0,0,0,0,0,0,0,0,0,0,0,0,0,0,0,0,0,0,0,0,0,0,0,0,0,0,0],"id":36,"left_children":[1,3,5,7,9,11,13,15,17,19,21,23,25,27,29,-1,-1,-1,-1,-1,-1,-1,-1,-1,-1,-1,-1,-1,-1,-1,-1],"loss_changes":[1.5729901E4,9.016983E3,7.442451E2,2.4236055E3,4.7429253E3,9.5889154E2,5.295947E2,5.138179E2,7.703137E1,4.269884E3,4.3631626E3,3.59469E2,5.594609E2,3.2854004E2,3.3556555E2,0E0,0E0,0E0,0E0,0E0,0E0,0E0,0E0,0E0,0E0,0E0,0E0,0E0,0E0,0E0,0E0],"parents":[2147483647,0,0,1,1,2,2,3,3,4,4,5,5,6,6,7,7,8,8,9,9,10,10,11,11,12,12,13,13,14,14],"right_children":[2,4,6,8,10,12,14,16,18,20,22,24,26,28,30,-1,-1,-1,-1,-1,-1,-1,-1,-1,-1,-1,-1,-1,-1,-1,-1],"split_conditions":[-1.6098773E-1,1.8571854E-1,-4.9970787E-2,-1.6107027E-1,-4.0001976E-1,7.7289593E-1,5.267479E-1,4.3832844E-1,1.1828969E-2,1.1157422E-2,-3.3869732E-2,-8.408633E-1,-4.164648E-2,-1.2622131E0,-9.6292484E-1,-5.466738E-2,5.484898E-2,-3.0738754E-2,4.857764E-2,-2.6150292E-2,4.0477183E-2,1.5680267E-2,-3.1028122E-2,5.1949E-3,-5.222342E-2,2.5016367E-2,-4.710679E-2,1.6373314E-2,-5.4573324E-2,9.093733E-2,-1.8257163E-2],"split_indices":[2160,174,2209,2160,2511,2584,2448,444,2051,2158,197,2400,148,2932,920,0,0,0,0,0,0,0,0,0,0,0,0,0,0,0,0],"split_type":[0,0,0,0,0,0,0,0,0,0,0,0,0,0,0,0,0,0,0,0,0,0,0,0,0,0,0,0,0,0,0],"sum_hessian":[7.4317586E4,5.8945723E4,1.5371865E4,6.763335E3,5.218239E4,3.810204E3,1.1561661E4,6.0711973E3,6.921379E2,2.6222045E4,2.5960344E4,2.4007153E3,1.4094888E3,1.1145393E4,4.1626837E2,5.97202E3,9.917697E1,2.167477E1,6.7046313E2,2.6663506E3,2.3555693E4,1.9214582E4,6.7457617E3,3.0213177E2,2.0985837E3,1.0615547E3,3.4793402E2,1.5602261E2,1.098937E4,7.795326E1,3.3831512E2],"tree_param":{"num_deleted":"0","num_feature":"4096","num_nodes":"31","size_leaf_vector":"1"}},{"base_weights":[-2.572853E-3,2.2479784E-1,-8.9510983E-1,-8.258409E-1,3.6291197E-1,-3.5641056E-1,-9.899158E-1,-1.0502412E0,9.0353394E-1,5.516376E-1,-8.660632E-2,2.346968E-1,-9.8830086E-1,3.0944037E-1,-1.0144547E0,-5.4040965E-2,4.0611956E-2,-3.1570707E-2,4.8264485E-2,8.390826E-3,3.8153443E-2,3.1239612E-3,-7.6036744E-2,-3.308992E-2,3.0989608E-2,4.6682514E-2,-5.2809685E-2,-4.8801035E-2,8.049746E-2,-5.169143E-2,2.4922805E-2],"categories":[],"categories_nodes":[],"categories_segments":[],"categories_sizes":[],"default_left":[0,0,0,0,0,0,0,0,0,0,0,0,0,0,0,0,0,0,0,0,0,0,0,0,0,0,0,0,0,0,0],"id":37,"left_children":[1,3,5,7,9,11,13,15,17,19,21,23,25,27,29,-1,-1,-1,-1,-1,-1,-1,-1,-1,-1,-1,-1,-1,-1,-1,-1],"loss_changes":[1.4776921E4,8.419042E3,7.448154E2,2.6255186E3,4.3536147E3,8.412932E2,4.0708887E2,3.5025342E2,8.140289E1,2.9260488E3,3.250765E3,4.0412762E2,1.5228162E2,4.145241E2,3.6928516E2,0E0,0E0,0E0,0E0,0E0,0E0,0E0,0E0,0E0,0E0,0E0,0E0,0E0,0E0,0E0,0E0],"parents":[2147483647,0,0,1,1,2,2,3,3,4,4,5,5,6,6,7,7,8,8,9,9,10,10,11,11,12,12,13,13,14,14],"right_children":[2,4,6,8,10,12,14,16,18,20,22,24,26,28,30,-1,-1,-1,-1,-1,-1,-1,-1,-1,-1,-1,-1,-1,-1,-1,-1],"split_conditions":[-1.6098773E-1,1.20722905E-1,-1.3809733E0,-1.6107027E-1,-1.10586196E-1,9.499053E-1,-1.4671439E0,8.441761E-2,1.1828969E-2,1.921777E-2,-7.665698E-2,5.2148677E-2,-9.629268E-1,1.1359404E-1,8.8634305E-2,-5.4040965E-2,4.0611956E-2,-3.1570707E-2,4.8264485E-2,8.390826E-3,3.8153443E-2,3.1239612E-3,-7.6036744E-2,-3.308992E-2,3.0989608E-2,4.6682514E-2,-5.2809685E-2,-4.8801035E-2,8.049746E-2,-5.169143E-2,2.4922805E-2],"split_indices":[2160,205,2318,2160,370,2359,867,251,2051,2206,2239,185,495,2267,3786,0,0,0,0,0,0,0,0,0,0,0,0,0,0,0,0],"split_type":[0,0,0,0,0,0,0,0,0,0,0,0,0,0,0,0,0,0,0,0,0,0,0,0,0,0,0,0,0,0,0],"sum_hessian":[7.277896E4,5.8004418E4,1.4774545E4,6.729197E3,5.127522E4,2.22607E3,1.2548475E4,5.962352E3,7.668451E2,3.6119625E4,1.5155597E4,1.1493105E3,1.0767596E3,2.2666231E2,1.23218125E4,5.872814E3,8.9537964E1,2.2960093E1,7.4388495E2,1.284432E4,2.3275303E4,1.3733955E4,1.4216422E3,3.3928708E2,8.1002344E2,2.9875027E1,1.0468845E3,1.1331192E2,1.13350395E2,1.2172408E4,1.4940445E2],"tree_param":{"num_deleted":"0","num_feature":"4096","num_nodes":"31","size_leaf_vector":"1"}},{"base_weights":[-4.579011E-3,-9.7041285E-1,2.0247677E-1,-1.0112846E0,4.4302532E-1,-8.544311E-1,3.3948234E-1,2.7073432E-2,-1.0492448E0,-5.689584E-2,7.1211714E-1,-1.0384623E0,6.8419176E-1,5.602788E-1,-8.823463E-2,2.0080013E-2,-4.778955E-2,-5.417914E-2,-5.775451E-3,-2.1548102E-2,4.5285624E-2,2.950686E-2,-5.478033E-2,4.7324877E-2,-4.4768177E-2,3.2437857E-2,-3.134299E-2,-6.996332E-2,3.0656846E-3],"categories":[],"categories_nodes":[],"categories_segments":[],"categories_sizes":[],"default_left":[0,0,0,0,0,0,0,0,0,0,0,0,0,0,0,0,0,0,0,0,0,0,0,0,0,0,0,0,0],"id":38,"left_children":[1,3,5,7,9,11,13,15,17,-1,19,21,23,25,27,-1,-1,-1,-1,-1,-1,-1,-1,-1,-1,-1,-1,-1,-1],"loss_changes":[1.4286938E4,7.3595605E2,8.516078E3,4.8882422E2,1.5826682E2,1.9193901E3,4.9204785E3,1.6217514E2,3.7228125E2,0E0,7.593327E1,5.704834E2,3.0867538E2,3.6124326E3,3.4836885E3,0E0,0E0,0E0,0E0,0E0,0E0,0E0,0E0,0E0,0E0,0E0,0E0,0E0,0E0],"parents":[2147483647,0,0,1,1,2,2,3,3,4,4,5,5,6,6,7,7,8,8,10,10,11,11,12,12,13,13,14,14],"right_children":[2,4,6,8,10,12,14,16,18,-1,20,22,24,26,28,-1,-1,-1,-1,-1,-1,-1,-1,-1,-1,-1,-1,-1,-1],"split_conditions":[1.0439188E-1,7.652403E-2,1.8571854E-1,-6.620766E-1,8.609665E-1,3.4511734E-2,1.3122694E-1,-9.138884E-2,5.267479E-1,-5.689584E-2,-1.0853257E-1,1.01830296E-1,3.4627754E-2,1.1905115E-1,-1.9600787E-4,2.0080013E-2,-4.778955E-2,-5.417914E-2,-5.775451E-3,-2.1548102E-2,4.5285624E-2,2.950686E-2,-5.478033E-2,4.7324877E-2,-4.4768177E-2,3.2437857E-2,-3.134299E-2,-6.996332E-2,3.0656846E-3],"split_indices":[2093,2299,174,2800,890,2137,903,2059,2448,0,23,2225,2137,207,2081,0,0,0,0,0,0,0,0,0,0,0,0,0,0],"split_type":[0,0,0,0,0,0,0,0,0,0,0,0,0,0,0,0,0,0,0,0,0,0,0,0,0,0,0,0,0],"sum_hessian":[7.140227E4,1.2602738E4,5.879954E4,1.2254755E4,3.4798276E2,6.737246E3,5.2062293E4,4.2766272E2,1.1827093E4,4.3216E1,3.0476678E2,6.023312E3,7.1393414E2,3.4342543E4,1.771975E4,3.176292E2,1.1003351E2,1.1400868E4,4.262244E2,3.8624023E1,2.6614273E2,1.980538E2,5.8252583E3,6.1841205E2,9.552214E1,3.196864E4,2.3739019E3,1.8091865E3,1.5910563E4],"tree_param":{"num_deleted":"0","num_feature":"4096","num_nodes":"29","size_leaf_vector":"1"}},{"base_weights":[-8.954232E-4,1.9617082E-1,-9.80377E-1,3.452055E-1,-7.3382443E-1,-3.9752162E-1,-1.0510478E0,7.916528E-1,1.4336966E-1,4.453018E-1,-1.048435E0,4.4636297E-1,-5.2459188E-2,-1.0720388E0,6.257624E-1,6.761861E-3,5.131338E-2,-5.1661033E-2,1.2155157E-2,-4.1499313E-2,5.3291965E-2,-5.3059872E-2,3.5048492E-2,6.2431168E-2,-2.4262499E-2,-5.454163E-2,-1.6743414E-2,4.106058E-2,-9.697824E-4],"categories":[],"categories_nodes":[],"categories_segments":[],"categories_sizes":[],"default_left":[0,0,0,0,0,0,0,0,0,0,0,0,0,0,0,0,0,0,0,0,0,0,0,0,0,0,0,0,0],"id":39,"left_children":[1,3,5,7,9,11,13,15,17,19,21,23,-1,25,27,-1,-1,-1,-1,-1,-1,-1,-1,-1,-1,-1,-1,-1,-1],"loss_changes":[1.3523279E4,8.081699E3,4.7198047E2,4.523347E3,2.9945317E3,7.1864307E2,3.7686133E2,2.4012754E3,4.0627185E3,1.3549387E3,1.5128271E2,4.3364188E2,0E0,1.3233594E2,2.0889275E1,0E0,0E0,0E0,0E0,0E0,0E0,0E0,0E0,0E0,0E0,0E0,0E0,0E0,0E0],"parents":[2147483647,0,0,1,1,2,2,3,3,4,4,5,5,6,6,7,7,8,8,9,9,10,10,11,11,13,13,14,14],"right_children":[2,4,6,8,10,12,14,16,18,20,22,24,-1,26,28,-1,-1,-1,-1,-1,-1,-1,-1,-1,-1,-1,-1,-1,-1],"split_conditions":[-1.1204607E-1,-1.1223571E-1,5.8260553E-2,-1.0340496E0,-6.0432583E-1,3.343518E-2,8.8634305E-2,3.7629854E-2,-8.483582E-4,1.5298572E-1,-2.3020035E-2,-9.8140496E-1,-5.2459188E-2,8.490408E-1,3.4149237E-2,6.761861E-3,5.131338E-2,-5.1661033E-2,1.2155157E-2,-4.1499313E-2,5.3291965E-2,-5.3059872E-2,3.5048492E-2,6.2431168E-2,-2.4262499E-2,-5.454163E-2,-1.6743414E-2,4.106058E-2,-9.697824E-4],"split_indices":[2141,93,2078,417,2812,2404,3786,701,2081,2413,445,862,0,2755,1557,0,0,0,0,0,0,0,0,0,0,0,0,0,0],"split_type":[0,0,0,0,0,0,0,0,0,0,0,0,0,0,0,0,0,0,0,0,0,0,0,0,0,0,0,0,0],"sum_hessian":[7.0020266E4,5.829461E4,1.1725658E4,5.0253062E4,8.041548E3,1.2827988E3,1.0442859E4,1.5628928E4,3.4624133E4,1.6894872E3,6.3520605E3,5.569899E2,7.2580896E2,1.0320254E4,1.2260503E2,4.124974E3,1.1503954E4,2.69434E3,3.1929793E4,5.492571E2,1.1402301E3,6.3127993E3,3.9261387E1,3.0032697E2,2.5666293E2,1.0052393E4,2.678609E2,9.7951904E1,2.465312E1],"tree_param":{"num_deleted":"0","num_feature":"4096","num_nodes":"29","size_leaf_vector":"1"}},{"base_weights":[-3.9369725E-3,-9.5659316E-1,1.90249E-1,-2.0123842E-1,-1.0397909E0,-8.2647866E-1,3.199465E-1,4.6758226E-1,-1.0158195E0,-1.0756764E0,-1.7424975E-1,-1.0332998E0,8.4839493E-1,6.156041E-1,1.9795692E-2,4.146483E-2,-1.271063E-2,-5.230791E-2,-3.4077504E-5,6.804368E-3,-5.3959467E-2,3.182441E-2,-5.2144326E-2,-5.327643E-2,4.029851E-2,4.7732033E-2,-4.0041994E-2,8.837858E-3,4.560134E-2,-6.921689E-2,7.2797867E-3],"categories":[],"categories_nodes":[],"categories_segments":[],"categories_sizes":[],"default_left":[0,0,0,0,0,0,0,0,0,0,0,0,0,0,0,0,0,0,0,0,0,0,0,0,0,0,0,0,0,0,0],"id":40,"left_children":[1,3,5,7,9,11,13,15,17,19,21,23,25,27,29,-1,-1,-1,-1,-1,-1,-1,-1,-1,-1,-1,-1,-1,-1,-1,-1],"loss_changes":[1.2720254E4,7.2343066E2,7.529294E3,6.468747E2,3.1738965E2,2.2467065E3,4.491376E3,1.7414828E2,1.1255981E1,4.898828E1,3.147918E2,3.5104297E2,1.3328534E2,3.310962E3,4.438703E3,0E0,0E0,0E0,0E0,0E0,0E0,0E0,0E0,0E0,0E0,0E0,0E0,0E0,0E0,0E0,0E0],"parents":[2147483647,0,0,1,1,2,2,3,3,4,4,5,5,6,6,7,7,8,8,9,9,10,10,11,11,12,12,13,13,14,14],"right_children":[2,4,6,8,10,12,14,16,18,20,22,24,26,28,30,-1,-1,-1,-1,-1,-1,-1,-1,-1,-1,-1,-1,-1,-1,-1,-1],"split_conditions":[1.0439188E-1,-5.312678E-1,1.20722905E-1,-3.3935148E-3,5.267479E-1,1.1106066E0,-4.0158197E-1,2.5861999E-2,2.0902601E-1,-3.6187285E-1,-1.2981697E0,8.441761E-2,-7.2200485E-2,-2.3626457E-1,1.7375043E-2,4.146483E-2,-1.271063E-2,-5.230791E-2,-3.4077504E-5,6.804368E-3,-5.3959467E-2,3.182441E-2,-5.2144326E-2,-5.327643E-2,4.029851E-2,4.7732033E-2,-4.0041994E-2,8.837858E-3,4.560134E-2,-6.921689E-2,7.2797867E-3],"split_indices":[2093,2800,205,2276,2448,2906,718,40,794,737,2318,251,2053,313,2072,0,0,0,0,0,0,0,0,0,0,0,0,0,0,0,0],"split_type":[0,0,0,0,0,0,0,0,0,0,0,0,0,0,0,0,0,0,0,0,0,0,0,0,0,0,0,0,0,0,0],"sum_hessian":[6.8720375E4,1.1633605E4,5.7086773E4,1.1635931E3,1.0470013E4,6.4479087E3,5.0638863E4,6.37933E2,5.256601E2,1.0045326E4,4.2468613E2,5.7452715E3,7.0263715E2,2.549669E4,2.5142176E4,4.2859045E2,2.0934254E2,5.0532675E2,2.0333376E1,2.3832062E1,1.0021494E4,2.1806894E2,2.0661719E2,5.653139E3,9.213219E1,6.669169E2,3.5720253E1,1.0292181E4,1.5204508E4,2.0558416E3,2.3086334E4],"tree_param":{"num_deleted":"0","num_feature":"4096","num_nodes":"31","size_leaf_vector":"1"}},{"base_weights":[-3.6304907E-3,-9.672321E-1,1.6863151E-1,-2.011747E-1,-1.0622977E0,-8.389116E-1,2.990129E-1,4.685544E-1,-1.015963E0,-1.0838349E0,3.5750946E-1,-1.0278494E0,7.646571E-1,1.1580571E-2,6.053054E-1,3.3814263E-2,-3.965594E-2,-5.206119E-2,-4.4615273E-3,-5.4441936E-2,1.0575219E-2,-1.795056E-2,2.8336033E-2,3.9140347E-2,-5.296426E-2,4.6664085E-2,-4.3733355E-2,-5.3267535E-2,5.838703E-3,3.5426885E-2,-3.2126036E-2],"categories":[],"categories_nodes":[],"categories_segments":[],"categories_sizes":[],"default_left":[0,0,0,0,0,0,0,0,0,0,0,0,0,0,0,0,0,0,0,0,0,0,0,0,0,0,0,0,0,0,0],"id":41,"left_children":[1,3,5,7,9,11,13,15,17,19,21,23,25,27,29,-1,-1,-1,-1,-1,-1,-1,-1,-1,-1,-1,-1,-1,-1,-1,-1],"loss_changes":[1.1195096E4,7.364844E2,7.512654E3,6.3362067E2,2.855166E2,1.9939756E3,4.4559565E3,1.7074342E2,5.689331E0,6.477539E1,2.4045013E1,3.436543E2,2.0014758E2,2.9586953E3,3.1623838E3,0E0,0E0,0E0,0E0,0E0,0E0,0E0,0E0,0E0,0E0,0E0,0E0,0E0,0E0,0E0,0E0],"parents":[2147483647,0,0,1,1,2,2,3,3,4,4,5,5,6,6,7,7,8,8,9,9,10,10,11,11,12,12,13,13,14,14],"right_children":[2,4,6,8,10,12,14,16,18,20,22,24,26,28,30,-1,-1,-1,-1,-1,-1,-1,-1,-1,-1,-1,-1,-1,-1,-1,-1],"split_conditions":[1.20851204E-1,-5.312678E-1,4.5840554E-2,-3.3935148E-3,8.8634305E-2,1.1106066E0,9.3175054E-1,-2.4267122E-1,2.04501E-1,8.878985E-1,4.596999E-2,8.97374E-3,-5.8394838E-2,-8.6265564E-2,-6.361805E-2,3.3814263E-2,-3.965594E-2,-5.206119E-2,-4.4615273E-3,-5.4441936E-2,1.0575219E-2,-1.795056E-2,2.8336033E-2,3.9140347E-2,-5.296426E-2,4.6664085E-2,-4.3733355E-2,-5.3267535E-2,5.838703E-3,3.5426885E-2,-3.2126036E-2],"split_indices":[2253,2800,248,2276,3786,2906,2991,500,571,745,68,234,2060,2224,2268,0,0,0,0,0,0,0,0,0,0,0,0,0,0,0,0],"split_type":[0,0,0,0,0,0,0,0,0,0,0,0,0,0,0,0,0,0,0,0,0,0,0,0,0,0,0,0,0,0,0],"sum_hessian":[6.7399734E4,1.0219063E4,5.7180668E4,1.1374027E3,9.081661E3,6.5410405E3,5.063963E4,6.23236E2,5.141667E2,8.951759E3,1.2990189E2,5.8575884E3,6.834523E2,2.6137893E4,2.4501734E4,5.4251526E2,8.07208E1,4.9406866E2,2.0098003E1,8.922745E3,2.901377E1,2.2337925E1,1.0756396E2,9.3168045E1,5.7644204E3,6.263785E2,5.7073795E1,2.3135754E3,2.3824318E4,2.2637287E4,1.8644476E3],"tree_param":{"num_deleted":"0","num_feature":"4096","num_nodes":"31","size_leaf_vector":"1"}},{"base_weights":[-1.1227588E-3,-8.6996996E-1,1.9745757E-1,-9.873098E-1,-1.6811636E-1,3.3947843E-1,-6.699097E-1,-3.7041226E-1,-1.05234E0,1.4201987E0,-4.344797E-1,6.2960976E-1,4.070353E-2,8.561484E-1,-8.751724E-1,-5.158291E-2,2.7073396E-2,1.5966406E-2,-5.3719014E-2,1.07832765E-2,8.445119E-2,-4.1075457E-2,1.0281486E-2,4.5810055E-2,1.0562046E-2,-4.715996E-2,1.14878155E-2,-3.9058965E-2,4.751317E-2,-4.80221E-2,2.6984576E-2],"categories":[],"categories_nodes":[],"categories_segments":[],"categories_sizes":[],"default_left":[0,0,0,0,0,0,0,0,0,0,0,0,0,0,0,0,0,0,0,0,0,0,0,0,0,0,0,0,0,0,0],"id":42,"left_children":[1,3,5,7,9,11,13,15,17,19,21,23,25,27,29,-1,-1,-1,-1,-1,-1,-1,-1,-1,-1,-1,-1,-1,-1,-1,-1],"loss_changes":[1.1417345E4,1.0065039E3,6.633171E3,4.118252E2,7.550122E2,4.0079907E3,2.3801023E3,6.2783185E2,2.9508008E2,6.9575195E1,3.853356E2,2.806462E3,4.243111E3,1.4697656E2,8.13667E2,0E0,0E0,0E0,0E0,0E0,0E0,0E0,0E0,0E0,0E0,0E0,0E0,0E0,0E0,0E0,0E0],"parents":[2147483647,0,0,1,1,2,2,3,3,4,4,5,5,6,6,7,7,8,8,9,9,10,10,11,11,12,12,13,13,14,14],"right_children":[2,4,6,8,10,12,14,16,18,20,22,24,26,28,30,-1,-1,-1,-1,-1,-1,-1,-1,-1,-1,-1,-1,-1,-1,-1,-1],"split_conditions":[1.4419354E-1,5.590981E-2,-1.605123E-1,5.8260553E-2,-2.242007E-1,-4.0158197E-1,1.446781E-1,1.2471794E0,-1.4486979E0,2.3217925E-1,3.471634E-2,6.310814E-1,1.3487756E-2,-7.404379E-2,5.2494043E-1,-5.158291E-2,2.7073396E-2,1.5966406E-2,-5.3719014E-2,1.07832765E-2,8.445119E-2,-4.1075457E-2,1.0281486E-2,4.5810055E-2,1.0562046E-2,-4.715996E-2,1.14878155E-2,-3.9058965E-2,4.751317E-2,-4.80221E-2,2.6984576E-2],"split_indices":[2050,2296,112,2078,702,718,2050,2645,2522,455,2451,757,2130,2057,400,0,0,0,0,0,0,0,0,0,0,0,0,0,0,0,0],"split_type":[0,0,0,0,0,0,0,0,0,0,0,0,0,0,0,0,0,0,0,0,0,0,0,0,0,0,0,0,0,0,0],"sum_hessian":[6.6134266E4,1.2301771E4,5.3832492E4,1.0530099E4,1.7716725E3,4.6268445E4,7.564047E3,1.01789136E3,9.512207E3,2.4552519E2,1.5261472E3,2.3459664E4,2.2808781E4,8.9013385E2,6.673913E3,5.9244916E2,4.2544223E2,1.4470644E2,9.367501E3,5.1479855E1,1.9404535E2,9.541916E2,5.719557E2,1.3908323E4,9.551341E3,3.665546E3,1.9143236E4,4.152853E1,8.4860535E2,6.300921E3,3.7299185E2],"tree_param":{"num_deleted":"0","num_feature":"4096","num_nodes":"31","size_leaf_vector":"1"}},{"base_weights":[-2.074204E-3,-9.5072806E-1,1.7177758E-1,-9.296339E-2,-1.0123028E0,4.0312847E-1,-3.5312447E-1,4.5079902E-1,-9.5284855E-1,-3.034386E-2,-1.0454469E0,7.853563E-1,5.1658485E-2,-1.1510451E0,7.161596E-2,3.6205273E-2,-6.232086E-3,-0E0,-5.1456936E-2,1.19874574E-1,-4.384433E-2,-9.833154E-4,-5.3494688E-2,-1.5530147E-3,4.516033E-2,1.7373564E-2,-4.109503E-2,-6.1453767E-2,4.664429E-2,1.89032E-2,-3.526907E-2],"categories":[],"categories_nodes":[],"categories_segments":[],"categories_sizes":[],"default_left":[0,0,0,0,0,0,0,0,0,0,0,0,0,0,0,0,0,0,0,0,0,0,0,0,0,0,0,0,0,0,0],"id":43,"left_children":[1,3,5,7,9,11,13,15,17,19,21,23,25,27,29,-1,-1,-1,-1,-1,-1,-1,-1,-1,-1,-1,-1,-1,-1,-1,-1],"loss_changes":[1.0697521E4,5.241631E2,6.655514E3,3.291252E2,2.9917285E2,5.106027E3,5.6865986E3,7.08228E1,1.8953598E1,6.733176E2,2.2144629E2,1.7572998E3,5.126275E3,9.6050586E2,2.6067947E3,0E0,0E0,0E0,0E0,0E0,0E0,0E0,0E0,0E0,0E0,0E0,0E0,0E0,0E0,0E0,0E0],"parents":[2147483647,0,0,1,1,2,2,3,3,4,4,5,5,6,6,7,7,8,8,9,9,10,10,11,11,12,12,13,13,14,14],"right_children":[2,4,6,8,10,12,14,16,18,20,22,24,26,28,30,-1,-1,-1,-1,-1,-1,-1,-1,-1,-1,-1,-1,-1,-1,-1,-1],"split_conditions":[1.4165376E-1,-1.1639035E0,-1.0404773E-1,1.8103617E-1,-2.3778671E-1,-1.222691E0,5.237515E-2,-2.3277861E-1,-1.2291006E-1,-1.1618389E0,5.851827E-2,8.44725E-2,-2.0896802E-2,4.859301E-1,-1.5539941E-1,3.6205273E-2,-6.232086E-3,-0E0,-5.1456936E-2,1.19874574E-1,-4.384433E-2,-9.833154E-4,-5.3494688E-2,-1.5530147E-3,4.516033E-2,1.7373564E-2,-4.109503E-2,-6.1453767E-2,4.664429E-2,1.89032E-2,-3.526907E-2],"split_indices":[2050,2416,182,2726,2951,682,2233,320,2071,884,2982,208,2136,2444,112,0,0,0,0,0,0,0,0,0,0,0,0,0,0,0,0],"split_type":[0,0,0,0,0,0,0,0,0,0,0,0,0,0,0,0,0,0,0,0,0,0,0,0,0,0,0,0,0,0,0],"sum_hessian":[6.481938E4,1.0036649E4,5.478273E4,6.793456E2,9.357304E3,3.803196E4,1.6750766E4,4.1552457E2,2.63821E2,3.1107635E2,9.046228E3,1.8206072E4,1.982589E4,5.8172007E3,1.0933565E4,2.8586032E2,1.2966425E2,2.1196518E1,2.426245E2,7.416063E1,2.3691571E2,2.1575592E2,8.830471E3,2.2921272E3,1.5913944E4,1.4819364E4,5.0065264E3,5.613511E3,2.0368974E2,7.8493486E3,3.0842166E3],"tree_param":{"num_deleted":"0","num_feature":"4096","num_nodes":"31","size_leaf_vector":"1"}},{"base_weights":[-3.1402495E-3,1.6532548E-1,-9.448795E-1,-8.354692E-1,2.7395043E-1,-1.0042465E0,-2.5866246E-1,-1.0240968E0,6.0959256E-1,5.771799E-1,-2.5100134E-2,-1.0453532E0,3.1110656E-2,4.2243895E-1,-5.2106928E-2,2.9555202E-2,-5.2003603E-2,-4.6858583E-2,4.532939E-2,-4.3465078E-2,3.402479E-2,1.1749318E-2,-3.0056179E-2,5.1295478E-2,-5.3150862E-2,4.2996526E-2,-4.86318E-2,8.618557E-2,-0E0],"categories":[],"categories_nodes":[],"categories_segments":[],"categories_sizes":[],"default_left":[0,0,0,0,0,0,0,0,0,0,0,0,0,0,0,0,0,0,0,0,0,0,0,0,0,0,0,0,0],"id":44,"left_children":[1,3,5,7,9,11,13,15,17,19,21,23,25,27,-1,-1,-1,-1,-1,-1,-1,-1,-1,-1,-1,-1,-1,-1,-1],"loss_changes":[1.0078185E4,5.8546475E3,3.8381445E2,1.4452009E3,4.4098477E3,3.8258105E2,4.2787573E2,1.2888428E2,2.8941888E2,3.612456E3,3.6690952E3,3.2313574E2,2.9355994E2,2.360809E2,0E0,0E0,0E0,0E0,0E0,0E0,0E0,0E0,0E0,0E0,0E0,0E0,0E0,0E0,0E0],"parents":[2147483647,0,0,1,1,2,2,3,3,4,4,5,5,6,6,7,7,8,8,9,9,10,10,11,11,12,12,13,13],"right_children":[2,